{"learner":{"attributes":{},"feature_names":[],"feature_types":[],"gradient_booster":{"model":{"gbtree_model_param":{"num_parallel_tree":"1","num_trees":"100"},"iteration_indptr":[0,1,2,3,4,5,6,7,8,9,10,11,12,13,14,15,16,17,18,19,20,21,22,23,24,25,26,27,28,29,30,31,32,33,34,35,36,37,38,39,40,41,42,43,44,45,46,47,48,49,50,51,52,53,54,55,56,57,58,59,60,61,62,63,64,65,66,67,68,69,70,71,72,73,74,75,76,77,78,79,80,81,82,83,84,85,86,87,88,89,90,91,92,93,94,95,96,97,98,99,100],"tree_info":[0,0,0,0,0,0,0,0,0,0,0,0,0,0,0,0,0,0,0,0,0,0,0,0,0,0,0,0,0,0,0,0,0,0,0,0,0,0,0,0,0,0,0,0,0,0,0,0,0,0,0,0,0,0,0,0,0,0,0,0,0,0,0,0,0,0,0,0,0,0,0,0,0,0,0,0,0,0,0,0,0,0,0,0,0,0,0,0,0,0,0,0,0,0,0,0,0,0,0,0],"trees":[{"base_weights":[7.8074756E-8,-3.3445087E-1,1.2646004E0,-7.143344E-1,1.4299E-2,8.6241084E-1,2.157467E0,-4.4698152E-1,-9.071237E-1,7.357087E-1,-1.8305266E-1,1.4227115E0,5.491042E-1,1.6766824E0,2.502606E0,-6.8915105E-1,-1.5608436E-1,-1.1129521E0,-7.2251076E-1,2.303086E-1,1.0552752E0,-3.529857E-1,7.3647276E-2,8.9214456E-1,1.6573087E0,2.75116E-1,8.2059366E-1,1.3565645E0,2.1784987E0,2.2206035E0,2.6950827E0,-9.243897E-1,-3.0885008E-1,4.9295926E-1,-3.0513656E-1,-9.168223E-1,-1.213677E0,-2.973445E-1,-8.0944157E-1,-1.0248317E-1,4.0185872E-1,1.2691239E0,8.582588E-2,-4.1677654E-1,1.0397209E-1,3.4496313E-1,-1.2008434E-1,6.097017E-1,1.2417976E0,2.4503856E0,1.4789242E0,5.516752E-1,1.2340326E-1,6.8643326E-1,1.2396697E0,1.1203632E0,1.5163363E0,2.3637338E0,1.5400524E0,1.8799558E0,2.683761E0,2.7611043E0,1.3474746E0,-3.0835512E-1,-2.1042193E-1,-1.7841274E-1,-3.191075E-2,2.3345663E-1,-2.0692164E-2,2.3135953E-1,-1.0567794E-1,-1.1482973E-1,-2.9869702E-1,-3.4198195E-1,-4.2670682E-1,-3.1562187E-2,-2.0419614E-1,-1.8045604E-1,-2.7776492E-1,-1.3027921E-1,3.730635E-2,5.814094E-2,2.594178E-1,5.513686E-1,2.854176E-1,1.1578101E-1,-1.6866514E-1,-7.083631E-2,-1.6532706E-1,2.2842446E-1,-4.0082045E-2,6.913066E-2,2.4307936E-1,4.4706598E-2,-6.4150594E-2,-1.1509565E-1,2.030339E-1,4.124427E-1,9.487119E-2,7.756086E-1,2.0801419E-1,3.3430898E-1,5.273834E-1,8.202569E-2,2.1412411E-1,-3.0342337E-2,7.059045E-2,1.6353297E-1,2.690966E-1,4.0046313E-1,4.51837E-2,2.2572763E-2,3.4710515E-1,5.009731E-1,3.6746085E-1,4.6225497E-1,7.233099E-1,-5.249203E-2,4.75845E-1,4.772772E-1,6.16866E-1,8.09002E-1,1.97258E-1,-1.0454203E-1,8.3132964E-1,-1.6056305E-1,5.201786E-1],"categories":[],"categories_nodes":[],"categories_segments":[],"categories_sizes":[],"default_left":[0,0,0,0,0,0,0,0,0,0,0,0,0,0,0,0,0,0,0,0,0,0,0,0,0,0,0,0,0,0,0,0,0,0,0,0,0,0,0,0,0,0,0,0,0,0,0,0,0,0,0,0,0,0,0,0,0,0,0,0,0,0,0,0,0,0,0,0,0,0,0,0,0,0,0,0,0,0,0,0,0,0,0,0,0,0,0,0,0,0,0,0,0,0,0,0,0,0,0,0,0,0,0,0,0,0,0,0,0,0,0,0,0,0,0,0,0,0,0,0,0,0,0,0,0,0,0],"id":0,"left_children":[1,3,5,7,9,11,13,15,17,19,21,23,25,27,29,31,33,35,37,39,41,43,45,47,49,51,53,55,57,59,61,63,65,67,69,71,73,75,77,79,81,83,85,87,89,91,93,95,97,99,101,103,105,107,109,111,113,115,117,119,121,123,125,-1,-1,-1,-1,-1,-1,-1,-1,-1,-1,-1,-1,-1,-1,-1,-1,-1,-1,-1,-1,-1,-1,-1,-1,-1,-1,-1,-1,-1,-1,-1,-1,-1,-1,-1,-1,-1,-1,-1,-1,-1,-1,-1,-1,-1,-1,-1,-1,-1,-1,-1,-1,-1,-1,-1,-1,-1,-1,-1,-1,-1,-1,-1,-1],"loss_changes":[6.984543E3,1.7302559E3,1.2384761E3,3.2178833E2,9.6968396E2,4.1754456E2,1.7368896E2,1.8453253E2,1.371687E2,2.360445E2,2.333154E2,1.0481848E2,1.1358316E2,6.949365E1,2.7776855E1,1.2764447E2,1.1546615E2,3.2767334E1,7.0611694E1,3.2468567E1,1.8564587E2,9.384711E1,1.12052025E2,2.5314728E1,7.998645E1,3.1945538E1,4.2328552E1,8.792419E0,1.6937317E1,3.566028E1,2.8753906E1,1.9649841E1,3.1655525E1,3.5796097E1,4.9470413E1,2.429071E1,1.5766357E1,2.401128E1,3.796228E1,1.4654517E1,3.5945713E1,1.3089746E2,3.1917988E1,6.839282E1,6.179856E1,4.713468E1,3.1416718E1,1.0121208E1,1.3969116E1,2.3582825E1,4.7375122E1,1.1981171E1,1.2436102E1,1.6888794E1,1.8980927E1,4.3566284E0,5.250702E0,1.4616089E0,3.597992E0,4.472473E0,1.0263672E0,1.1749756E1,1.4751865E1,0E0,0E0,0E0,0E0,0E0,0E0,0E0,0E0,0E0,0E0,0E0,0E0,0E0,0E0,0E0,0E0,0E0,0E0,0E0,0E0,0E0,0E0,0E0,0E0,0E0,0E0,0E0,0E0,0E0,0E0,0E0,0E0,0E0,0E0,0E0,0E0,0E0,0E0,0E0,0E0,0E0,0E0,0E0,0E0,0E0,0E0,0E0,0E0,0E0,0E0,0E0,0E0,0E0,0E0,0E0,0E0,0E0,0E0,0E0,0E0,0E0,0E0,0E0,0E0],"parents":[2147483647,0,0,1,1,2,2,3,3,4,4,5,5,6,6,7,7,8,8,9,9,10,10,11,11,12,12,13,13,14,14,15,15,16,16,17,17,18,18,19,19,20,20,21,21,22,22,23,23,24,24,25,25,26,26,27,27,28,28,29,29,30,30,31,31,32,32,33,33,34,34,35,35,36,36,37,37,38,38,39,39,40,40,41,41,42,42,43,43,44,44,45,45,46,46,47,47,48,48,49,49,50,50,51,51,52,52,53,53,54,54,55,55,56,56,57,57,58,58,59,59,60,60,61,61,62,62],"right_children":[2,4,6,8,10,12,14,16,18,20,22,24,26,28,30,32,34,36,38,40,42,44,46,48,50,52,54,56,58,60,62,64,66,68,70,72,74,76,78,80,82,84,86,88,90,92,94,96,98,100,102,104,106,108,110,112,114,116,118,120,122,124,126,-1,-1,-1,-1,-1,-1,-1,-1,-1,-1,-1,-1,-1,-1,-1,-1,-1,-1,-1,-1,-1,-1,-1,-1,-1,-1,-1,-1,-1,-1,-1,-1,-1,-1,-1,-1,-1,-1,-1,-1,-1,-1,-1,-1,-1,-1,-1,-1,-1,-1,-1,-1,-1,-1,-1,-1,-1,-1,-1,-1,-1,-1,-1,-1],"split_conditions":[6.331953E-1,-4.207186E-1,1.5566727E0,-4.5057377E-1,-7.00313E-2,-3.860533E-2,2.083419E0,-8.6213917E-1,-7.906044E-1,-2.891866E-1,1.3387316E-1,-5.2756083E-1,9.741829E-1,-1.3027044E-1,2.5668447E0,1.5555942E0,-9.987888E-2,-1.6005494E-1,-7.467632E-2,-1.810061E-1,1.0244571E0,1.2205169E0,-2.3049174E-2,9.741829E-1,-8.914809E-2,-1.0407319E-2,-5.0812364E-2,-1.828555E-1,9.120923E-1,2.8645715E-2,9.387373E-1,-9.953654E-1,-7.406063E-1,6.537137E-1,-1.3927222E0,6.287572E-1,-1.3990411E-1,1.0712757E0,-5.252405E-1,3.764177E-1,-7.6593506E-1,-1.0695233E-1,-1.2280091E0,-1.2713319E-1,-1.4076961E0,9.0268457E-1,-9.385133E-1,-9.797269E-1,1.0900033E0,1.0619121E0,9.0722764E-1,-4.4810274E-1,-9.2485124E-1,1.2747447E0,2.7108759E-2,-9.4822235E-2,8.633486E-1,-3.1939828E-1,9.4954723E-1,-1.8412347E-1,1.3662332E0,-9.045777E-1,-7.2656065E-1,-3.0835512E-1,-2.1042193E-1,-1.7841274E-1,-3.191075E-2,2.3345663E-1,-2.0692164E-2,2.3135953E-1,-1.0567794E-1,-1.1482973E-1,-2.9869702E-1,-3.4198195E-1,-4.2670682E-1,-3.1562187E-2,-2.0419614E-1,-1.8045604E-1,-2.7776492E-1,-1.3027921E-1,3.730635E-2,5.814094E-2,2.594178E-1,5.513686E-1,2.854176E-1,1.1578101E-1,-1.6866514E-1,-7.083631E-2,-1.6532706E-1,2.2842446E-1,-4.0082045E-2,6.913066E-2,2.4307936E-1,4.4706598E-2,-6.4150594E-2,-1.1509565E-1,2.030339E-1,4.124427E-1,9.487119E-2,7.756086E-1,2.0801419E-1,3.3430898E-1,5.273834E-1,8.202569E-2,2.1412411E-1,-3.0342337E-2,7.059045E-2,1.6353297E-1,2.690966E-1,4.0046313E-1,4.51837E-2,2.2572763E-2,3.4710515E-1,5.009731E-1,3.6746085E-1,4.6225497E-1,7.233099E-1,-5.249203E-2,4.75845E-1,4.772772E-1,6.16866E-1,8.09002E-1,1.97258E-1,-1.0454203E-1,8.3132964E-1,-1.6056305E-1,5.201786E-1],"split_indices":[0,0,0,2,5,5,0,0,0,1,0,1,0,1,0,9,5,6,5,0,6,1,5,0,5,5,1,3,6,1,8,0,6,7,7,7,7,6,6,9,1,5,7,2,7,1,7,4,6,6,0,1,1,0,5,5,7,3,6,3,6,2,6,0,0,0,0,0,0,0,0,0,0,0,0,0,0,0,0,0,0,0,0,0,0,0,0,0,0,0,0,0,0,0,0,0,0,0,0,0,0,0,0,0,0,0,0,0,0,0,0,0,0,0,0,0,0,0,0,0,0,0,0,0,0,0,0],"split_type":[0,0,0,0,0,0,0,0,0,0,0,0,0,0,0,0,0,0,0,0,0,0,0,0,0,0,0,0,0,0,0,0,0,0,0,0,0,0,0,0,0,0,0,0,0,0,0,0,0,0,0,0,0,0,0,0,0,0,0,0,0,0,0,0,0,0,0,0,0,0,0,0,0,0,0,0,0,0,0,0,0,0,0,0,0,0,0,0,0,0,0,0,0,0,0,0,0,0,0,0,0,0,0,0,0,0,0,0,0,0,0,0,0,0,0,0,0,0,0,0,0,0,0,0,0,0,0],"sum_hessian":[1.6512E4,1.3059E4,3.453E3,6.25E3,6.809E3,2.382E3,1.071E3,2.62E3,3.63E3,1.462E3,5.347E3,8.53E2,1.529E3,4.5E2,6.21E2,1.429E3,1.191E3,1.714E3,1.916E3,5.67E2,8.95E2,3.217E3,2.13E3,2.63E2,5.9E2,7.62E2,7.67E2,2.77E2,1.73E2,2.57E2,3.64E2,8.82E2,5.47E2,2.22E2,9.69E2,5.85E2,1.129E3,3.26E2,1.59E3,1.93E2,3.74E2,7.33E2,1.62E2,2.823E3,3.94E2,8.87E2,1.243E3,1.47E2,1.16E2,1.06E2,4.84E2,2.69E2,4.93E2,5.83E2,1.84E2,1.15E2,1.62E2,1.32E2,4.1E1,1.51E2,1.06E2,3.46E2,1.8E1,6E2,2.82E2,2.26E2,3.21E2,1.47E2,7.5E1,4E1,9.29E2,7.6E1,5.09E2,8.39E2,2.9E2,2.18E2,1.08E2,5.73E2,1.017E3,7.8E1,1.15E2,2.59E2,1.15E2,2.61E2,4.72E2,1.11E2,5.1E1,1.205E3,1.618E3,1.04E2,2.9E2,7.13E2,1.74E2,3.21E2,9.22E2,9E0,1.38E2,1.01E2,1.5E1,9.8E1,8E0,2.12E2,2.72E2,1E2,1.69E2,1.64E2,3.29E2,3.51E2,2.32E2,1.69E2,1.5E1,4E0,1.11E2,1.03E2,5.9E1,9E0,1.23E2,1E0,4E1,6.1E1,9E1,1.05E2,1E0,1E0,3.45E2,3E0,1.5E1],"tree_param":{"num_deleted":"0","num_feature":"10","num_nodes":"127","size_leaf_vector":"1"}},{"base_weights":[5.2542915E-4,-2.4017411E-1,8.698264E-1,-4.8344457E-1,3.1816673E-2,5.544729E-1,1.4467466E0,-6.415682E-2,-5.577615E-1,5.2698094E-1,-1.3541397E-1,1.0345889E0,3.6824343E-1,1.1448959E0,1.7569476E0,9.0951726E-2,-5.582257E-1,-3.9124694E-1,-7.1547484E-1,6.375992E-1,-3.0831763E-1,-6.962783E-2,-4.3720418E-1,6.123895E-1,1.2207614E0,5.049748E-1,1.4662884E-1,9.110173E-1,1.5322075E0,1.4846655E0,1.8921286E0,3.924857E-1,-2.9787907E-1,-3.638507E-1,-6.9338125E-1,-2.2226636E-1,-7.2523046E-1,-4.6479115E-1,-8.7346E-1,1.1990977E-1,8.2488286E-1,-5.660695E-2,-4.5228544E-1,6.518113E-1,-1.2090388E-1,-8.730564E-2,-5.24947E-1,-1.9169244E-1,6.7862153E-1,1.8275559E0,1.0838833E0,3.5575575E-1,7.541689E-1,1.8259797E-2,3.0400738E-1,1.2644792E0,8.212082E-1,1.6442863E0,1.1036204E0,1.2522273E0,1.795321E0,9.609922E-2,1.9139568E0,2.3792844E-1,4.247535E-2,-1.4552782E-1,2.6240438E-2,-3.390466E-3,-1.848968E-1,-1.8451706E-1,-2.6870382E-1,8.163533E-3,-1.3183095E-1,-2.0333003E-1,-3.2419688E-1,-2.7039634E-2,-2.3076214E-1,-2.3114519E-1,-3.1158683E-1,1.10103324E-1,-3.1359687E-2,4.5961526E-1,2.071093E-1,4.388753E-2,-2.309226E-1,-1.4837882E-1,8.134897E-2,2.714528E-1,1.2943137E-1,-9.794465E-3,-1.2715092E-1,6.0930163E-2,-2.3368283E-1,-1.7450586E-1,-9.664578E-2,-5.9044363E-5,-2.2983906E-1,1.472488E-1,2.9616502E-1,1.7522503E-1,5.603681E-1,3.410603E-1,-2.3088114E-2,1.2933049E-1,-1.0071127E-2,1.7921135E-1,3.3830842E-1,4.3234468E-1,-6.53326E-4,1.061858E-1,-4.0696584E-2,6.358828E-2,4.1354454E-1,3.5982952E-1,2.2636491E-1,5.659708E-1,4.335318E-1,3.6277527E-1,7.1018234E-2,2.1403389E-1,3.993481E-1,1.5607178E-1,5.5495375E-1,-9.1208294E-2,3.1451005E-1,5.792061E-1,2.514618E-1],"categories":[],"categories_nodes":[],"categories_segments":[],"categories_sizes":[],"default_left":[0,0,0,0,0,0,0,0,0,0,0,0,0,0,0,0,0,0,0,0,0,0,0,0,0,0,0,0,0,0,0,0,0,0,0,0,0,0,0,0,0,0,0,0,0,0,0,0,0,0,0,0,0,0,0,0,0,0,0,0,0,0,0,0,0,0,0,0,0,0,0,0,0,0,0,0,0,0,0,0,0,0,0,0,0,0,0,0,0,0,0,0,0,0,0,0,0,0,0,0,0,0,0,0,0,0,0,0,0,0,0,0,0,0,0,0,0,0,0,0,0,0,0,0,0,0,0],"id":1,"left_children":[1,3,5,7,9,11,13,15,17,19,21,23,25,27,29,31,33,35,37,39,41,43,45,47,49,51,53,55,57,59,61,63,65,67,69,71,73,75,77,79,81,83,85,87,89,91,93,95,97,99,101,103,105,107,109,111,113,115,117,119,121,123,125,-1,-1,-1,-1,-1,-1,-1,-1,-1,-1,-1,-1,-1,-1,-1,-1,-1,-1,-1,-1,-1,-1,-1,-1,-1,-1,-1,-1,-1,-1,-1,-1,-1,-1,-1,-1,-1,-1,-1,-1,-1,-1,-1,-1,-1,-1,-1,-1,-1,-1,-1,-1,-1,-1,-1,-1,-1,-1,-1,-1,-1,-1,-1,-1],"loss_changes":[3.4553943E3,8.557574E2,6.5070264E2,2.126947E2,5.0577148E2,2.0678601E2,1.1643579E2,7.890748E1,1.5201099E2,1.4267624E2,9.0621155E1,5.010785E1,5.0560028E1,5.6940125E1,2.0085083E1,9.203754E1,6.210335E0,1.5915973E2,1.1749597E2,1.3195355E2,6.533518E0,1.3880086E2,2.5036957E1,1.0781288E1,3.5228638E1,3.814331E1,1.290387E1,1.1786224E1,9.761841E0,1.2987793E1,1.5968262E1,4.431459E1,2.4787226E1,9.1609335E0,1.7307739E0,1.0165214E2,1.5260101E1,1.3143288E2,3.0238892E1,2.0170315E1,9.406946E1,9.8071165E0,3.654213E0,1.3494209E1,9.361392E1,3.3299393E1,7.3262787E0,1.7598863E0,1.0236519E1,2.9718323E0,2.2721863E1,1.902298E1,2.1933594E1,1.0268508E1,6.3502674E0,9.306992E0,7.288803E0,6.3945007E0,4.566963E0,4.323715E0,5.1557007E0,2.6048996E0,5.706543E0,0E0,0E0,0E0,0E0,0E0,0E0,0E0,0E0,0E0,0E0,0E0,0E0,0E0,0E0,0E0,0E0,0E0,0E0,0E0,0E0,0E0,0E0,0E0,0E0,0E0,0E0,0E0,0E0,0E0,0E0,0E0,0E0,0E0,0E0,0E0,0E0,0E0,0E0,0E0,0E0,0E0,0E0,0E0,0E0,0E0,0E0,0E0,0E0,0E0,0E0,0E0,0E0,0E0,0E0,0E0,0E0,0E0,0E0,0E0,0E0,0E0,0E0,0E0,0E0],"parents":[2147483647,0,0,1,1,2,2,3,3,4,4,5,5,6,6,7,7,8,8,9,9,10,10,11,11,12,12,13,13,14,14,15,15,16,16,17,17,18,18,19,19,20,20,21,21,22,22,23,23,24,24,25,25,26,26,27,27,28,28,29,29,30,30,31,31,32,32,33,33,34,34,35,35,36,36,37,37,38,38,39,39,40,40,41,41,42,42,43,43,44,44,45,45,46,46,47,47,48,48,49,49,50,50,51,51,52,52,53,53,54,54,55,55,56,56,57,57,58,58,59,59,60,60,61,61,62,62],"right_children":[2,4,6,8,10,12,14,16,18,20,22,24,26,28,30,32,34,36,38,40,42,44,46,48,50,52,54,56,58,60,62,64,66,68,70,72,74,76,78,80,82,84,86,88,90,92,94,96,98,100,102,104,106,108,110,112,114,116,118,120,122,124,126,-1,-1,-1,-1,-1,-1,-1,-1,-1,-1,-1,-1,-1,-1,-1,-1,-1,-1,-1,-1,-1,-1,-1,-1,-1,-1,-1,-1,-1,-1,-1,-1,-1,-1,-1,-1,-1,-1,-1,-1,-1,-1,-1,-1,-1,-1,-1,-1,-1,-1,-1,-1,-1,-1,-1,-1,-1,-1,-1,-1,-1,-1,-1,-1],"split_conditions":[6.077712E-1,-3.5960615E-1,1.4309211E0,-8.778476E-2,-6.313533E-2,-4.752949E-2,2.083419E0,1.0712757E0,-5.252405E-1,1.1087307E0,1.0244571E0,-5.2756083E-1,6.8096984E-3,-1.3027044E-1,-6.070189E-1,6.6369635E-1,1.3615514E0,8.8331383E-1,-1.0233655E0,-6.86477E-1,-1.3478005E0,-1.30787E0,-1.4076961E0,-9.461709E-1,-9.7257026E-2,1.029242E0,9.5039064E-1,-3.978078E-2,9.120923E-1,2.8478777E0,-2.5195035E-1,-5.252405E-1,2.8645715E-2,-1.3428092E0,1.6986457E0,3.5200614E-2,1.5671229E0,1.0712757E0,-1.3990411E-1,6.387398E-1,-1.3927222E0,1.4645525E0,5.4017425E0,-1.8484732E-2,8.932965E-1,1.4364613E0,3.1810546E-1,1.4190577E0,-1.1609072E-2,-3.514831E-1,1.1087307E0,1.0712757E0,3.4647802E-1,-1.1104188E0,9.963659E-1,-2.9517874E-1,-1.2080438E0,-4.6323154E-2,1.1087307E0,-2.7069953E-1,-5.054497E-1,-4.324179E-1,1.1040488E0,2.3792844E-1,4.247535E-2,-1.4552782E-1,2.6240438E-2,-3.390466E-3,-1.848968E-1,-1.8451706E-1,-2.6870382E-1,8.163533E-3,-1.3183095E-1,-2.0333003E-1,-3.2419688E-1,-2.7039634E-2,-2.3076214E-1,-2.3114519E-1,-3.1158683E-1,1.10103324E-1,-3.1359687E-2,4.5961526E-1,2.071093E-1,4.388753E-2,-2.309226E-1,-1.4837882E-1,8.134897E-2,2.714528E-1,1.2943137E-1,-9.794465E-3,-1.2715092E-1,6.0930163E-2,-2.3368283E-1,-1.7450586E-1,-9.664578E-2,-5.9044363E-5,-2.2983906E-1,1.472488E-1,2.9616502E-1,1.7522503E-1,5.603681E-1,3.410603E-1,-2.3088114E-2,1.2933049E-1,-1.0071127E-2,1.7921135E-1,3.3830842E-1,4.3234468E-1,-6.53326E-4,1.061858E-1,-4.0696584E-2,6.358828E-2,4.1354454E-1,3.5982952E-1,2.2636491E-1,5.659708E-1,4.335318E-1,3.6277527E-1,7.1018234E-2,2.1403389E-1,3.993481E-1,1.5607178E-1,5.5495375E-1,-9.1208294E-2,3.1451005E-1,5.792061E-1,2.514618E-1],"split_indices":[0,0,0,5,5,5,0,6,6,6,6,1,5,1,1,7,6,7,7,1,7,7,7,4,5,0,0,5,6,0,2,6,1,7,6,5,7,6,7,7,7,6,2,5,7,6,0,8,3,3,6,6,1,4,6,3,7,5,6,3,3,3,6,0,0,0,0,0,0,0,0,0,0,0,0,0,0,0,0,0,0,0,0,0,0,0,0,0,0,0,0,0,0,0,0,0,0,0,0,0,0,0,0,0,0,0,0,0,0,0,0,0,0,0,0,0,0,0,0,0,0,0,0,0,0,0,0],"split_type":[0,0,0,0,0,0,0,0,0,0,0,0,0,0,0,0,0,0,0,0,0,0,0,0,0,0,0,0,0,0,0,0,0,0,0,0,0,0,0,0,0,0,0,0,0,0,0,0,0,0,0,0,0,0,0,0,0,0,0,0,0,0,0,0,0,0,0,0,0,0,0,0,0,0,0,0,0,0,0,0,0,0,0,0,0,0,0,0,0,0,0,0,0,0,0,0,0,0,0,0,0,0,0,0,0,0,0,0,0,0,0,0,0,0,0,0,0,0,0,0,0,0,0,0,0,0,0],"sum_hessian":[1.6512E4,1.2932E4,3.58E3,6.826E3,6.106E3,2.316E3,1.264E3,1.028E3,5.798E3,1.541E3,4.565E3,6.46E2,1.67E3,6.43E2,6.21E2,7.83E2,2.45E2,2.822E3,2.976E3,1.361E3,1.8E2,3.749E3,8.16E2,1.99E2,4.47E2,1.032E3,6.38E2,4.03E2,2.4E2,2.1E2,4.11E2,4.41E2,3.42E2,1.02E2,1.43E2,1.875E3,9.47E2,1.152E3,1.824E3,3.62E2,9.99E2,6.6E1,1.14E2,2.48E2,3.501E3,1.64E2,6.52E2,1.5E1,1.84E2,8E1,3.67E2,6.47E2,3.85E2,3.52E2,2.86E2,7.9E1,3.24E2,1.88E2,5.2E1,1.23E2,8.7E1,5E0,4.06E2,1.69E2,2.72E2,2.3E2,1.12E2,4.3E1,5.9E1,1.06E2,3.7E1,8.73E2,1.002E3,8.38E2,1.09E2,5.17E2,6.35E2,1.127E3,6.97E2,1.72E2,1.9E2,1.58E2,8.41E2,5.2E1,1.4E1,1.08E2,6E0,1.14E2,1.34E2,2.712E3,7.89E2,1.16E2,4.8E1,5.08E2,1.44E2,1.2E1,3E0,1.16E2,6.8E1,3E0,7.7E1,3.51E2,1.6E1,5.42E2,1.05E2,2.73E2,1.12E2,4E0,3.48E2,2.57E2,2.9E1,8E0,7.1E1,4.6E1,2.78E2,8.1E1,1.07E2,4.6E1,6E0,1.7E1,1.06E2,4E0,8.3E1,4E0,1E0,3.99E2,7E0],"tree_param":{"num_deleted":"0","num_feature":"10","num_nodes":"127","size_leaf_vector":"1"}},{"base_weights":[7.1028044E-4,-2.0902605E-1,5.2107203E-1,-4.0239477E-1,-6.1776467E-2,3.1159744E-1,9.6431476E-1,-4.960135E-1,-1.7939457E-1,4.0867376E-1,-1.5403697E-1,5.664781E-1,1.3676204E-1,7.5595087E-1,1.2171373E0,-6.52417E-1,-4.197143E-1,-1.2907143E-1,-6.268186E-1,7.514217E-2,6.19815E-1,-2.0901123E-2,-2.627549E-1,1.6869044E-1,6.6614354E-1,1.8200807E-1,-1.7347416E-1,5.8780575E-1,1.0503458E0,1.315202E0,9.117459E-1,5.5613446E-1,-6.6644055E-1,-2.0353888E-1,-4.768838E-1,4.5964736E-2,-2.9634404E-1,-5.2854085E-1,-9.179917E-1,1.8354422E-1,-2.5800642E-1,7.382216E-1,9.2304E-3,7.653184E-2,-2.996979E-1,1.16626695E-1,-2.877719E-1,-2.9481681E-2,3.1265506E-1,1.2151257E0,5.759368E-1,2.5408614E-1,-9.554998E-2,3.481864E-1,-2.8680545E-1,7.3743653E-1,4.4041485E-1,1.0742403E0,-1.1351527E-1,2.5282085E-2,1.3328571E0,1.1768986E0,6.686255E-1,4.8061407E-1,3.7573494E-2,-1.6978025E-1,-2.1269818E-1,-2.5259438E-1,-5.141809E-2,-1.345239E-1,-2.1484773E-1,4.708549E-2,-1.7637289E-1,-7.184657E-2,-1.673621E-1,2.3084074E-2,-1.6695248E-1,-1.1664481E-1,-2.811364E-1,1.4831439E-1,-2.9186634E-2,6.9205895E-2,-1.1709564E-1,1.533315E-1,3.366898E-1,1.5808035E-1,-3.7855055E-2,2.3601393E-1,6.045014E-3,-7.255952E-2,-1.894574E-1,7.668902E-2,-1.5982807E-1,-6.3637875E-2,-1.2473067E-1,4.3030906E-1,-1.66775E-2,2.0911904E-1,4.8277024E-2,3.9195758E-1,1.3179997E-1,2.0109938E-1,9.55902E-2,1.1639837E-1,4.8822206E-2,7.976558E-3,-1.0598121E-1,1.3497907E-1,-1.2820681E-2,-1.6381805E-1,-5.850554E-2,1.6697031E-1,2.710721E-1,1.0202599E-1,1.9943272E-1,4.2459008E-1,2.951236E-1,-1.1587208E-1,5.6276556E-2,2.6733354E-1,-6.7712866E-2,4.0472534E-1,1.1597583E-1,-6.728583E-2,3.592423E-1,2.2763179E-1,-4.123312E-2],"categories":[],"categories_nodes":[],"categories_segments":[],"categories_sizes":[],"default_left":[0,0,0,0,0,0,0,0,0,0,0,0,0,0,0,0,0,0,0,0,0,0,0,0,0,0,0,0,0,0,0,0,0,0,0,0,0,0,0,0,0,0,0,0,0,0,0,0,0,0,0,0,0,0,0,0,0,0,0,0,0,0,0,0,0,0,0,0,0,0,0,0,0,0,0,0,0,0,0,0,0,0,0,0,0,0,0,0,0,0,0,0,0,0,0,0,0,0,0,0,0,0,0,0,0,0,0,0,0,0,0,0,0,0,0,0,0,0,0,0,0,0,0,0,0,0,0],"id":2,"left_children":[1,3,5,7,9,11,13,15,17,19,21,23,25,27,29,31,33,35,37,39,41,43,45,47,49,51,53,55,57,59,61,63,65,67,69,71,73,75,77,79,81,83,85,87,89,91,93,95,97,99,101,103,105,107,109,111,113,115,117,119,121,123,125,-1,-1,-1,-1,-1,-1,-1,-1,-1,-1,-1,-1,-1,-1,-1,-1,-1,-1,-1,-1,-1,-1,-1,-1,-1,-1,-1,-1,-1,-1,-1,-1,-1,-1,-1,-1,-1,-1,-1,-1,-1,-1,-1,-1,-1,-1,-1,-1,-1,-1,-1,-1,-1,-1,-1,-1,-1,-1,-1,-1,-1,-1,-1,-1],"loss_changes":[1.8023174E3,3.3510785E2,4.4017078E2,1.0613318E2,2.901317E2,1.4354636E2,7.925745E1,4.2483765E1,3.3827858E1,7.7136215E1,8.087665E1,5.186316E1,2.688427E1,4.0814972E1,1.9345337E1,2.0250824E1,2.9699646E1,3.9686333E1,3.8644142E0,1.5431914E1,4.850464E1,6.828606E1,2.922786E1,7.541078E0,5.1199097E1,3.3434044E1,1.4525255E1,1.1474243E1,8.54837E0,1.1740295E1,1.0171997E1,6.1087694E0,4.5599365E0,1.0240269E1,1.2663208E1,4.673548E1,1.0170887E1,2.0071602E0,1.017952E-2,2.815654E1,6.879351E0,4.844989E1,7.777968E0,7.458107E1,1.2340263E1,1.7377178E1,2.7855286E1,4.3604884E0,8.811846E0,9.84935E0,2.1694153E1,1.6156387E1,1.0869173E1,1.7692795E0,4.676546E0,7.4300385E0,5.8965607E0,7.7743835E0,6.472839E-1,1.9396604E0,7.3097534E0,2.574997E0,6.7167854E0,0E0,0E0,0E0,0E0,0E0,0E0,0E0,0E0,0E0,0E0,0E0,0E0,0E0,0E0,0E0,0E0,0E0,0E0,0E0,0E0,0E0,0E0,0E0,0E0,0E0,0E0,0E0,0E0,0E0,0E0,0E0,0E0,0E0,0E0,0E0,0E0,0E0,0E0,0E0,0E0,0E0,0E0,0E0,0E0,0E0,0E0,0E0,0E0,0E0,0E0,0E0,0E0,0E0,0E0,0E0,0E0,0E0,0E0,0E0,0E0,0E0,0E0,0E0,0E0],"parents":[2147483647,0,0,1,1,2,2,3,3,4,4,5,5,6,6,7,7,8,8,9,9,10,10,11,11,12,12,13,13,14,14,15,15,16,16,17,17,18,18,19,19,20,20,21,21,22,22,23,23,24,24,25,25,26,26,27,27,28,28,29,29,30,30,31,31,32,32,33,33,34,34,35,35,36,36,37,37,38,38,39,39,40,40,41,41,42,42,43,43,44,44,45,45,46,46,47,47,48,48,49,49,50,50,51,51,52,52,53,53,54,54,55,55,56,56,57,57,58,58,59,59,60,60,61,61,62,62],"right_children":[2,4,6,8,10,12,14,16,18,20,22,24,26,28,30,32,34,36,38,40,42,44,46,48,50,52,54,56,58,60,62,64,66,68,70,72,74,76,78,80,82,84,86,88,90,92,94,96,98,100,102,104,106,108,110,112,114,116,118,120,122,124,126,-1,-1,-1,-1,-1,-1,-1,-1,-1,-1,-1,-1,-1,-1,-1,-1,-1,-1,-1,-1,-1,-1,-1,-1,-1,-1,-1,-1,-1,-1,-1,-1,-1,-1,-1,-1,-1,-1,-1,-1,-1,-1,-1,-1,-1,-1,-1,-1,-1,-1,-1,-1,-1,-1,-1,-1,-1,-1,-1,-1,-1,-1,-1,-1],"split_conditions":[3.5321486E-1,-5.734209E-1,1.2747447E0,1.0271108E0,-8.281779E-2,-3.2414954E-2,1.9977248E0,-9.953654E-1,1.2077488E0,-2.891866E-1,-2.5531324E-2,-9.2485124E-1,1.0900033E0,-5.0812364E-2,7.8348774E-1,-5.5771434E-1,-7.0620075E-2,3.0048913E-3,1.3375229E0,9.261379E-1,1.0244571E0,1.0806395E0,-1.4076961E0,-2.715183E-1,-9.580439E-2,9.18253E-1,-1.372757E0,-5.9490837E-3,1.1728097E0,-2.5195035E-1,-9.3256277E-1,-1.2225665E0,-7.1251506E-1,-1.504904E-1,1.6986457E0,1.0712757E0,-5.626954E-1,-1.4060381E-1,-1.344567E0,6.287572E-1,-1.4526179E0,-9.6417174E-2,-1.437644E0,-1.3577831E0,1.7688737E0,1.4364613E0,-5.252405E-1,3.6537418E-1,-8.281779E-2,1.0197753E0,9.3550164E-1,-3.1968632E-3,-7.967887E-1,4.464377E-3,3.286785E-1,-8.453931E-1,1.677108E0,-7.324198E-2,1.4309211E0,-8.108343E-1,1.3662332E0,-1.1369103E0,1.0380443E0,4.8061407E-1,3.7573494E-2,-1.6978025E-1,-2.1269818E-1,-2.5259438E-1,-5.141809E-2,-1.345239E-1,-2.1484773E-1,4.708549E-2,-1.7637289E-1,-7.184657E-2,-1.673621E-1,2.3084074E-2,-1.6695248E-1,-1.1664481E-1,-2.811364E-1,1.4831439E-1,-2.9186634E-2,6.9205895E-2,-1.1709564E-1,1.533315E-1,3.366898E-1,1.5808035E-1,-3.7855055E-2,2.3601393E-1,6.045014E-3,-7.255952E-2,-1.894574E-1,7.668902E-2,-1.5982807E-1,-6.3637875E-2,-1.2473067E-1,4.3030906E-1,-1.66775E-2,2.0911904E-1,4.8277024E-2,3.9195758E-1,1.3179997E-1,2.0109938E-1,9.55902E-2,1.1639837E-1,4.8822206E-2,7.976558E-3,-1.0598121E-1,1.3497907E-1,-1.2820681E-2,-1.6381805E-1,-5.850554E-2,1.6697031E-1,2.710721E-1,1.0202599E-1,1.9943272E-1,4.2459008E-1,2.951236E-1,-1.1587208E-1,5.6276556E-2,2.6733354E-1,-6.7712866E-2,4.0472534E-1,1.1597583E-1,-6.728583E-2,3.592423E-1,2.2763179E-1,-4.123312E-2],"split_indices":[0,0,0,9,5,5,0,0,7,1,5,1,6,1,7,9,5,5,7,6,6,6,7,4,5,7,7,5,7,2,6,4,6,5,6,6,6,5,6,7,7,0,7,7,6,6,6,0,5,6,6,5,6,5,2,1,0,5,0,6,6,4,7,0,0,0,0,0,0,0,0,0,0,0,0,0,0,0,0,0,0,0,0,0,0,0,0,0,0,0,0,0,0,0,0,0,0,0,0,0,0,0,0,0,0,0,0,0,0,0,0,0,0,0,0,0,0,0,0,0,0,0,0,0,0,0,0],"split_type":[0,0,0,0,0,0,0,0,0,0,0,0,0,0,0,0,0,0,0,0,0,0,0,0,0,0,0,0,0,0,0,0,0,0,0,0,0,0,0,0,0,0,0,0,0,0,0,0,0,0,0,0,0,0,0,0,0,0,0,0,0,0,0,0,0,0,0,0,0,0,0,0,0,0,0,0,0,0,0,0,0,0,0,0,0,0,0,0,0,0,0,0,0,0,0,0,0,0,0,0,0,0,0,0,0,0,0,0,0,0,0,0,0,0,0,0,0,0,0,0,0,0,0,0,0,0,0],"sum_hessian":[1.6512E4,1.1769E4,4.743E3,5.087E3,6.682E3,3.222E3,1.521E3,3.582E3,1.505E3,1.095E3,5.587E3,1.31E3,1.912E3,8.36E2,6.85E2,1.172E3,2.41E3,1.354E3,1.51E2,4.25E2,6.7E2,2.512E3,3.075E3,2.63E2,1.047E3,1.669E3,2.43E2,5.34E2,3.02E2,5.16E2,1.69E2,1.3E1,1.159E3,5.05E2,1.905E3,6.62E2,6.92E2,1.15E2,3.6E1,3.21E2,1.04E2,5.61E2,1.09E2,1.862E3,6.5E2,1.9E2,2.885E3,1.11E2,1.52E2,1.46E2,9.01E2,1.325E3,3.44E2,4.3E1,2E2,2.63E2,2.71E2,2.96E2,6E0,7E0,5.09E2,7.9E1,9E1,3E0,1E1,3.49E2,8.1E2,2.3E1,4.82E2,1.705E3,2E2,5.64E2,9.8E1,5.7E2,1.22E2,5E0,1.1E2,2E0,3.4E1,1.52E2,1.69E2,2.2E1,8.2E1,3.54E2,2.07E2,2.2E1,8.7E1,1.36E2,1.726E3,5.55E2,9.5E1,1.57E2,3.3E1,1.815E3,1.07E3,1E0,1.1E2,4.2E1,1.1E2,1.3E2,1.6E1,6.58E2,2.43E2,5.36E2,7.89E2,2.34E2,1.1E2,3.4E1,9E0,5.1E1,1.49E2,1.28E2,1.35E2,1.89E2,8.2E1,5.9E1,2.37E2,3E0,3E0,1E0,6E0,5E2,9E0,1E0,7.8E1,8.1E1,9E0],"tree_param":{"num_deleted":"0","num_feature":"10","num_nodes":"127","size_leaf_vector":"1"}},{"base_weights":[6.8002305E-4,-1.8742602E-1,2.9718903E-1,1.4731465E-1,-2.2950877E-1,1.4847253E-1,6.021253E-1,-3.2027595E-2,3.4368563E-1,-3.496775E-1,-1.5452754E-1,4.56082E-1,5.369945E-2,5.0396574E-1,9.2211443E-1,-1.24405235E-1,2.5038648E-1,4.9002725E-1,-1.7137413E-1,-7.4408606E-2,-3.9557704E-1,-1.1201197E-1,-3.8810667E-1,1.2550578E-1,5.862329E-1,2.4021134E-1,-2.7690679E-3,7.670197E-1,3.9711225E-1,9.4494635E-1,3.039856E-1,-1.4273265E-1,1.2433937E0,-5.289337E-1,3.4365928E-1,1.1086162E0,3.7980062E-1,-1.8652607E-2,-3.5152408E-1,1.14063516E-1,-2.0961457E-1,-3.0592147E-1,-4.6176735E-1,3.691849E-2,-2.2253144E-1,-2.1821766E-1,-5.619256E-1,-8.099772E-3,2.8569028E-1,9.236281E-1,4.5040864E-1,4.4781706E-1,1.1208275E-1,8.819987E-2,-2.4903378E-1,6.1165196E-1,9.8200935E-1,3.54871E-1,7.767642E-1,7.726177E-1,1.0387728E0,-2.1337812E-1,5.38798E-1,-1.0768597E-1,-2.7029598E-2,-4.2468905E-2,5.913788E-1,3.5092336E-1,-2.5654656E-1,1.3157308E-1,-8.297336E-2,-3.9987806E-3,3.9616665E-1,7.535386E-2,2.561243E-1,2.5289841E-2,-1.1229289E-1,-6.681763E-2,-1.3114138E-1,1.963355E-1,-1.0588791E-3,-1.7550887E-1,-4.8120733E-2,8.8691376E-2,-1.0168349E-1,9.715106E-3,-1.4229593E-1,6.87708E-2,-4.4529498E-2,-3.8089097E-2,-2.0800178E-1,1.8105727E-2,-1.022969E-1,6.655764E-1,-1.7416114E-1,2.3161037E-2,-8.385302E-2,-3.5955694E-2,1.1617554E-1,-2.9904542E-2,2.895177E-1,1.5288211E-1,-4.3067683E-2,2.3904897E-1,1.07931636E-1,1.061829E-1,-1.8623123E-2,1.0159625E-1,-5.348824E-3,-3.1191396E-2,-2.203131E-1,1.3913287E-2,2.0212747E-1,3.1315216E-1,1.18493356E-1,1.9233882E-1,9.132896E-2,-1.961914E-1,2.545182E-1,1.7345898E-1,2.823517E-1,3.1605557E-1,7.878922E-2,-1.1356814E-1,2.6283926E-1],"categories":[],"categories_nodes":[],"categories_segments":[],"categories_sizes":[],"default_left":[0,0,0,0,0,0,0,0,0,0,0,0,0,0,0,0,0,0,0,0,0,0,0,0,0,0,0,0,0,0,0,0,0,0,0,0,0,0,0,0,0,0,0,0,0,0,0,0,0,0,0,0,0,0,0,0,0,0,0,0,0,0,0,0,0,0,0,0,0,0,0,0,0,0,0,0,0,0,0,0,0,0,0,0,0,0,0,0,0,0,0,0,0,0,0,0,0,0,0,0,0,0,0,0,0,0,0,0,0,0,0,0,0,0,0,0,0,0,0,0,0,0,0,0,0],"id":3,"left_children":[1,3,5,7,9,11,13,15,17,19,21,23,25,27,29,31,33,35,37,39,41,43,45,47,49,51,53,55,57,59,61,63,65,67,69,71,73,75,77,79,81,83,85,87,89,91,93,95,97,99,101,103,105,107,109,111,113,115,117,119,121,-1,123,-1,-1,-1,-1,-1,-1,-1,-1,-1,-1,-1,-1,-1,-1,-1,-1,-1,-1,-1,-1,-1,-1,-1,-1,-1,-1,-1,-1,-1,-1,-1,-1,-1,-1,-1,-1,-1,-1,-1,-1,-1,-1,-1,-1,-1,-1,-1,-1,-1,-1,-1,-1,-1,-1,-1,-1,-1,-1,-1,-1,-1,-1],"loss_changes":[9.210706E2,1.4236691E2,2.9059796E2,3.977169E1,8.0823364E1,1.2562534E2,6.552771E1,1.54496E1,4.0710934E1,4.3535065E1,5.4863647E1,4.359659E1,3.47143E1,4.4949646E1,6.656372E0,1.1357895E1,1.0794423E1,2.8216637E1,3.294976E0,1.2612291E1,1.7394684E1,7.702324E1,2.500734E1,6.165956E0,3.294565E1,2.0325584E1,5.6722538E1,1.4898102E1,1.8118744E1,6.861511E0,4.9126797E0,4.9864817E0,6.3274612E0,9.866638E0,7.833459E0,1.4998016E1,2.1609085E1,2.4481854E0,5.0912046E-1,1.3156314E1,5.2269545E0,2.5091095E1,1.0547668E1,7.1112305E1,1.2076602E2,1.47952385E1,2.3022812E1,3.6796224E0,5.4419785E0,8.914688E0,1.8392517E1,8.686134E0,2.0030079E1,4.910714E1,4.8010307E1,9.517868E0,6.5930176E0,1.473497E1,1.2237923E1,5.0595856E0,3.2025146E0,0E0,5.282951E0,0E0,0E0,0E0,0E0,0E0,0E0,0E0,0E0,0E0,0E0,0E0,0E0,0E0,0E0,0E0,0E0,0E0,0E0,0E0,0E0,0E0,0E0,0E0,0E0,0E0,0E0,0E0,0E0,0E0,0E0,0E0,0E0,0E0,0E0,0E0,0E0,0E0,0E0,0E0,0E0,0E0,0E0,0E0,0E0,0E0,0E0,0E0,0E0,0E0,0E0,0E0,0E0,0E0,0E0,0E0,0E0,0E0,0E0,0E0,0E0,0E0,0E0],"parents":[2147483647,0,0,1,1,2,2,3,3,4,4,5,5,6,6,7,7,8,8,9,9,10,10,11,11,12,12,13,13,14,14,15,15,16,16,17,17,18,18,19,19,20,20,21,21,22,22,23,23,24,24,25,25,26,26,27,27,28,28,29,29,30,30,31,31,32,32,33,33,34,34,35,35,36,36,37,37,38,38,39,39,40,40,41,41,42,42,43,43,44,44,45,45,46,46,47,47,48,48,49,49,50,50,51,51,52,52,53,53,54,54,55,55,56,56,57,57,58,58,59,59,60,60,62,62],"right_children":[2,4,6,8,10,12,14,16,18,20,22,24,26,28,30,32,34,36,38,40,42,44,46,48,50,52,54,56,58,60,62,64,66,68,70,72,74,76,78,80,82,84,86,88,90,92,94,96,98,100,102,104,106,108,110,112,114,116,118,120,122,-1,124,-1,-1,-1,-1,-1,-1,-1,-1,-1,-1,-1,-1,-1,-1,-1,-1,-1,-1,-1,-1,-1,-1,-1,-1,-1,-1,-1,-1,-1,-1,-1,-1,-1,-1,-1,-1,-1,-1,-1,-1,-1,-1,-1,-1,-1,-1,-1,-1,-1,-1,-1,-1,-1,-1,-1,-1,-1,-1,-1,-1,-1,-1],"split_conditions":[8.2919784E-2,-9.987888E-2,1.029242E0,-5.0812364E-2,-7.149112E-1,-5.9905875E-2,2.2782316E0,-2.6091027E-1,1.0244571E0,-8.0153894E-1,9.432095E-1,-6.86477E-1,-1.1381656E0,-4.577569E-2,9.387373E-1,4.577809E0,-8.0399936E-1,-1.4076961E0,1.3334602E0,-1.2695324E-1,-5.252405E-1,-4.784218E-1,-9.2319906E-1,-1.5286484E-2,-9.7257026E-2,9.261379E-1,-5.252405E-1,-9.849169E-2,6.6431034E-1,-5.2756083E-1,-7.2656065E-1,-1.4479819E-1,-7.8394994E-2,-1.5605159E0,1.1478531E0,-9.045777E-1,-2.3680216E-1,-4.2890147E-3,-1.1837923E-1,-2.2569075E-2,-1.442576E0,6.0380065E-1,-5.5771434E-1,-3.1968632E-3,-2.9962593E-1,1.2077488E0,-1.5140942E0,8.932965E-1,-8.0399936E-1,-3.1939828E-1,1.1087307E0,-1.2779222E0,-1.4176787E0,6.7367893E-1,-2.4472156E-1,-1.0837674E0,1.0525483E0,-1.2180265E0,-1.1104188E0,2.8478777E0,1.1040488E0,-2.1337812E-1,-9.163437E-2,-1.0768597E-1,-2.7029598E-2,-4.2468905E-2,5.913788E-1,3.5092336E-1,-2.5654656E-1,1.3157308E-1,-8.297336E-2,-3.9987806E-3,3.9616665E-1,7.535386E-2,2.561243E-1,2.5289841E-2,-1.1229289E-1,-6.681763E-2,-1.3114138E-1,1.963355E-1,-1.0588791E-3,-1.7550887E-1,-4.8120733E-2,8.8691376E-2,-1.0168349E-1,9.715106E-3,-1.4229593E-1,6.87708E-2,-4.4529498E-2,-3.8089097E-2,-2.0800178E-1,1.8105727E-2,-1.022969E-1,6.655764E-1,-1.7416114E-1,2.3161037E-2,-8.385302E-2,-3.5955694E-2,1.1617554E-1,-2.9904542E-2,2.895177E-1,1.5288211E-1,-4.3067683E-2,2.3904897E-1,1.07931636E-1,1.061829E-1,-1.8623123E-2,1.0159625E-1,-5.348824E-3,-3.1191396E-2,-2.203131E-1,1.3913287E-2,2.0212747E-1,3.1315216E-1,1.18493356E-1,1.9233882E-1,9.132896E-2,-1.961914E-1,2.545182E-1,1.7345898E-1,2.823517E-1,3.1605557E-1,7.878922E-2,-1.1356814E-1,2.6283926E-1],"split_indices":[0,5,0,1,0,5,0,0,6,2,7,1,7,5,8,9,4,7,6,8,6,6,6,3,5,6,6,3,1,1,6,5,3,1,7,2,0,8,5,5,0,7,9,5,7,7,9,7,4,3,6,7,7,7,7,1,6,7,4,0,6,0,5,0,0,0,0,0,0,0,0,0,0,0,0,0,0,0,0,0,0,0,0,0,0,0,0,0,0,0,0,0,0,0,0,0,0,0,0,0,0,0,0,0,0,0,0,0,0,0,0,0,0,0,0,0,0,0,0,0,0,0,0,0,0],"split_type":[0,0,0,0,0,0,0,0,0,0,0,0,0,0,0,0,0,0,0,0,0,0,0,0,0,0,0,0,0,0,0,0,0,0,0,0,0,0,0,0,0,0,0,0,0,0,0,0,0,0,0,0,0,0,0,0,0,0,0,0,0,0,0,0,0,0,0,0,0,0,0,0,0,0,0,0,0,0,0,0,0,0,0,0,0,0,0,0,0,0,0,0,0,0,0,0,0,0,0,0,0,0,0,0,0,0,0,0,0,0,0,0,0,0,0,0,0,0,0,0,0,0,0,0,0],"sum_hessian":[1.6512E4,1.0103E4,6.409E3,1.128E3,8.975E3,4.309E3,2.1E3,5.9E2,5.38E2,3.447E3,5.528E3,1.014E3,3.295E3,1.609E3,4.91E2,4.45E2,1.45E2,4.19E2,1.19E2,4.93E2,2.954E3,4.678E3,8.5E2,2.87E2,7.27E2,7.65E2,2.53E3,4.63E2,1.146E3,4.73E2,1.8E1,4.4E2,5E0,1.5E1,1.3E2,6.2E1,3.57E2,6.5E1,5.4E1,2.06E2,2.87E2,1.257E3,1.697E3,1.993E3,2.685E3,4.31E2,4.19E2,1.57E2,1.3E2,2.07E2,5.2E2,2.91E2,4.74E2,1.848E3,6.82E2,2.71E2,1.92E2,1.033E3,1.13E2,1.7E2,3.03E2,3E0,1.5E1,8.5E1,3.55E2,2E0,3E0,2E0,1.3E1,1.13E2,1.7E1,1E1,5.2E1,2.82E2,7.5E1,5.1E1,1.4E1,2.3E1,3.1E1,3.6E1,1.7E2,3.2E1,2.55E2,6.5E1,1.192E3,4.2E1,1.655E3,9.78E2,1.015E3,2.233E3,4.52E2,1.32E2,2.99E2,2E0,4.17E2,1.2E2,3.7E1,2.6E1,1.04E2,8E0,1.99E2,4.73E2,4.7E1,5.7E1,2.34E2,1.98E2,2.76E2,5.49E2,1.299E3,5.26E2,1.56E2,2.7E1,2.44E2,1.73E2,1.9E1,1.53E2,8.8E2,5E0,1.08E2,8.1E1,8.9E1,2.97E2,6E0,4E0,1.1E1],"tree_param":{"num_deleted":"0","num_feature":"10","num_nodes":"125","size_leaf_vector":"1"}},{"base_weights":[6.850618E-4,-7.546766E-2,3.7254992E-1,-1.6114455E-1,5.5999894E-2,2.8416574E-1,5.8822733E-1,-3.6154844E-2,-2.176515E-1,2.0543216E-1,-4.9529854E-2,5.5287623E-1,2.2499067E-1,6.2814826E-1,2.9979482E-1,4.182951E-2,-2.3027763E-1,-1.4932275E-1,-2.9178607E-1,2.6728016E-1,-8.2203425E-2,7.737118E-2,-9.166727E-2,5.7956463E-1,-5.494005E-1,6.0015875E-1,1.9109814E-1,6.754974E-1,4.3060282E-1,5.216644E-1,3.3781607E-2,8.0075973E-1,-1.190095E-2,-1.7503874E-1,-3.9654404E-1,9.587747E-2,-2.0669788E-1,-1.4360818E-1,-3.8362226E-1,3.1015596E-1,-3.454656E-1,1.7128038E-1,-1.8745397E-1,1.949506E-1,-1.4769743E-1,-2.688437E-2,-3.1195128E-1,9.508483E-2,6.245469E-1,-2.9456843E-2,-5.9352815E-1,7.3400545E-1,1.4640185E-1,2.2060998E-1,-1.9937006E-1,7.2737885E-1,4.92308E-1,7.4253327E-1,3.0405557E-1,-2.0427316E-1,5.6747377E-1,2.320171E-1,-2.0203222E-1,1.2269258E-1,3.097534E-1,1.4059052E-2,-9.651199E-2,-1.2587672E-2,-7.260109E-2,-1.2105664E-1,4.7691803E-2,-2.1592949E-2,6.0937025E-2,-4.133648E-2,-9.6085556E-2,-5.125184E-3,-1.24436595E-1,-1.2959789E-1,-8.546899E-2,2.6055774E-2,1.1407977E-1,-2.3776434E-2,-1.4736202E-1,-1.1382392E-2,1.11202E-1,-6.1822463E-2,1.1946236E-1,1.2797737E-1,4.080449E-2,-2.2223394E-2,-1.4691348E-1,2.592153E-2,-4.8597153E-2,-5.3764805E-2,-1.8167654E-1,-7.060615E-2,8.657813E-2,5.402005E-2,2.0297271E-1,-1.893279E-1,-4.9586214E-2,-2.1671729E-1,2.3089336E-1,7.166752E-2,-6.541396E-2,5.1473454E-2,1.21861935E-1,-3.4453928E-1,-4.526737E-2,1.0043379E-1,2.2379707E-1,9.3924224E-2,2.0338358E-1,3.646256E-2,2.2660191E-1,1.3886964E-1,-2.240366E-2,1.4763523E-2,-9.155162E-2,7.32024E-2,1.8622202E-1,1.19649164E-1,-2.2430241E-2,-1.2191157E-1,-1.687204E-2],"categories":[],"categories_nodes":[],"categories_segments":[],"categories_sizes":[],"default_left":[0,0,0,0,0,0,0,0,0,0,0,0,0,0,0,0,0,0,0,0,0,0,0,0,0,0,0,0,0,0,0,0,0,0,0,0,0,0,0,0,0,0,0,0,0,0,0,0,0,0,0,0,0,0,0,0,0,0,0,0,0,0,0,0,0,0,0,0,0,0,0,0,0,0,0,0,0,0,0,0,0,0,0,0,0,0,0,0,0,0,0,0,0,0,0,0,0,0,0,0,0,0,0,0,0,0,0,0,0,0,0,0,0,0,0,0,0,0,0,0,0,0,0,0,0],"id":4,"left_children":[1,3,5,7,9,11,13,15,17,19,21,23,25,27,29,31,33,35,37,39,41,43,45,47,49,51,53,55,57,59,61,63,65,67,69,71,73,75,77,79,81,83,85,87,89,91,93,95,97,-1,99,101,103,105,107,109,111,113,115,117,119,121,123,-1,-1,-1,-1,-1,-1,-1,-1,-1,-1,-1,-1,-1,-1,-1,-1,-1,-1,-1,-1,-1,-1,-1,-1,-1,-1,-1,-1,-1,-1,-1,-1,-1,-1,-1,-1,-1,-1,-1,-1,-1,-1,-1,-1,-1,-1,-1,-1,-1,-1,-1,-1,-1,-1,-1,-1,-1,-1,-1,-1,-1,-1],"loss_changes":[4.6765182E2,1.54401E2,5.3341217E1,5.8606186E1,8.530767E1,3.1566223E1,9.196014E0,3.9142757E1,2.8905884E1,3.985308E1,1.6963324E1,1.0879463E1,2.067498E1,6.3969727E0,5.9434214E0,7.524433E1,6.73621E0,4.1887352E1,3.723108E1,4.8526352E1,1.0623793E1,2.096137E1,3.397E1,7.589958E0,1.2091994E-1,8.09161E0,1.734066E1,5.1067505E0,5.3400536E0,1.9449291E0,2.2439682E0,1.0654915E1,3.1401463E1,4.9625607E0,7.774124E-1,1.01855545E1,1.8835205E1,3.6019356E1,7.9521637E0,2.6941895E1,4.655614E0,4.894991E0,3.1465178E0,7.0409565E0,6.8123837E0,2.819253E1,2.0977486E1,2.0501494E0,7.301529E0,0E0,2.4382591E-2,5.9540634E0,1.1307385E0,1.2634087E1,4.7038703E0,3.0090942E0,4.1130123E0,2.2629929E-1,6.170828E0,1.1732344E-1,7.4448776E-1,1.3603903E0,6.3254994E-1,0E0,0E0,0E0,0E0,0E0,0E0,0E0,0E0,0E0,0E0,0E0,0E0,0E0,0E0,0E0,0E0,0E0,0E0,0E0,0E0,0E0,0E0,0E0,0E0,0E0,0E0,0E0,0E0,0E0,0E0,0E0,0E0,0E0,0E0,0E0,0E0,0E0,0E0,0E0,0E0,0E0,0E0,0E0,0E0,0E0,0E0,0E0,0E0,0E0,0E0,0E0,0E0,0E0,0E0,0E0,0E0,0E0,0E0,0E0,0E0,0E0,0E0],"parents":[2147483647,0,0,1,1,2,2,3,3,4,4,5,5,6,6,7,7,8,8,9,9,10,10,11,11,12,12,13,13,14,14,15,15,16,16,17,17,18,18,19,19,20,20,21,21,22,22,23,23,24,24,25,25,26,26,27,27,28,28,29,29,30,30,31,31,32,32,33,33,34,34,35,35,36,36,37,37,38,38,39,39,40,40,41,41,42,42,43,43,44,44,45,45,46,46,47,47,48,48,50,50,51,51,52,52,53,53,54,54,55,55,56,56,57,57,58,58,59,59,60,60,61,61,62,62],"right_children":[2,4,6,8,10,12,14,16,18,20,22,24,26,28,30,32,34,36,38,40,42,44,46,48,50,52,54,56,58,60,62,64,66,68,70,72,74,76,78,80,82,84,86,88,90,92,94,96,98,-1,100,102,104,106,108,110,112,114,116,118,120,122,124,-1,-1,-1,-1,-1,-1,-1,-1,-1,-1,-1,-1,-1,-1,-1,-1,-1,-1,-1,-1,-1,-1,-1,-1,-1,-1,-1,-1,-1,-1,-1,-1,-1,-1,-1,-1,-1,-1,-1,-1,-1,-1,-1,-1,-1,-1,-1,-1,-1,-1,-1,-1,-1,-1,-1,-1,-1,-1,-1,-1,-1,-1],"split_conditions":[7.8821355E-1,-1.6632016E-1,1.8323895E0,-5.70031E-2,-3.747623E-2,-5.9905875E-2,9.18253E-1,1.0712757E0,-5.580135E-1,1.0619121E0,-9.584785E-1,1.4377706E0,-1.3378178E0,9.261379E-1,-9.7469956E-1,-1.3677657E0,1.7688737E0,6.387398E-1,-1.0233655E0,1.1977662E0,-1.3927222E0,1.0712757E0,-4.4564873E-1,-3.0806163E-1,8.52379E-1,1.1602312E0,1.0900033E0,7.6397443E-3,-1.4276614E0,-8.6051476E-1,-1.3221416E0,1.4588912E0,1.2127402E0,-1.2379917E0,2.3387868E0,-7.4528813E-1,8.8331383E-1,1.4270976E0,2.5041834E-2,-6.86477E-1,-7.843357E-2,-1.5175049E0,5.4017425E0,7.669545E-1,1.4364613E0,1.2083682E-2,-2.9962593E-1,-1.1244353E-2,-1.2426835E0,-2.9456843E-2,-6.925841E-2,-1.1678172E0,1.8484002E-2,-5.9813187E-2,-7.2061166E-2,-1.4810578E0,1.0391604E0,-1.6399739E0,-1.2677895E0,1.9197155E0,-1.3211576E0,-8.8106227E-1,-7.3207184E-3,1.2269258E-1,3.097534E-1,1.4059052E-2,-9.651199E-2,-1.2587672E-2,-7.260109E-2,-1.2105664E-1,4.7691803E-2,-2.1592949E-2,6.0937025E-2,-4.133648E-2,-9.6085556E-2,-5.125184E-3,-1.24436595E-1,-1.2959789E-1,-8.546899E-2,2.6055774E-2,1.1407977E-1,-2.3776434E-2,-1.4736202E-1,-1.1382392E-2,1.11202E-1,-6.1822463E-2,1.1946236E-1,1.2797737E-1,4.080449E-2,-2.2223394E-2,-1.4691348E-1,2.592153E-2,-4.8597153E-2,-5.3764805E-2,-1.8167654E-1,-7.060615E-2,8.657813E-2,5.402005E-2,2.0297271E-1,-1.893279E-1,-4.9586214E-2,-2.1671729E-1,2.3089336E-1,7.166752E-2,-6.541396E-2,5.1473454E-2,1.21861935E-1,-3.4453928E-1,-4.526737E-2,1.0043379E-1,2.2379707E-1,9.3924224E-2,2.0338358E-1,3.646256E-2,2.2660191E-1,1.3886964E-1,-2.240366E-2,1.4763523E-2,-9.155162E-2,7.32024E-2,1.8622202E-1,1.19649164E-1,-2.2430241E-2,-1.2191157E-1,-1.687204E-2],"split_indices":[0,0,0,5,5,5,7,6,6,6,7,2,7,6,6,7,6,7,7,7,7,6,6,3,0,6,6,5,7,4,1,1,7,7,4,6,7,6,2,1,8,7,2,6,6,5,7,2,1,0,5,4,5,3,2,1,2,1,9,0,6,6,5,0,0,0,0,0,0,0,0,0,0,0,0,0,0,0,0,0,0,0,0,0,0,0,0,0,0,0,0,0,0,0,0,0,0,0,0,0,0,0,0,0,0,0,0,0,0,0,0,0,0,0,0,0,0,0,0,0,0,0,0,0,0],"split_type":[0,0,0,0,0,0,0,0,0,0,0,0,0,0,0,0,0,0,0,0,0,0,0,0,0,0,0,0,0,0,0,0,0,0,0,0,0,0,0,0,0,0,0,0,0,0,0,0,0,0,0,0,0,0,0,0,0,0,0,0,0,0,0,0,0,0,0,0,0,0,0,0,0,0,0,0,0,0,0,0,0,0,0,0,0,0,0,0,0,0,0,0,0,0,0,0,0,0,0,0,0,0,0,0,0,0,0,0,0,0,0,0,0,0,0,0,0,0,0,0,0,0,0,0,0],"sum_hessian":[1.6512E4,1.3706E4,2.806E3,8.298E3,5.408E3,1.992E3,8.14E2,2.584E3,5.714E3,2.238E3,3.17E3,3.58E2,1.634E3,7.14E2,1E2,1.844E3,7.4E2,2.975E3,2.739E3,1.842E3,3.96E2,7.9E2,2.38E3,3.5E2,8E0,1.34E2,1.5E3,5.74E2,1.4E2,5.4E1,4.6E1,1.21E2,1.723E3,5.57E2,1.83E2,5.64E2,2.411E3,1.049E3,1.69E3,1.722E3,1.2E2,1.16E2,2.8E2,5.19E2,2.71E2,1.84E3,5.4E2,3E1,3.2E2,1E0,7E0,1.03E2,3.1E1,1.395E3,1.05E2,4.45E2,1.29E2,3.9E1,1.01E2,3E0,5.1E1,2.5E1,2.1E1,4.6E1,7.5E1,1.449E3,2.74E2,1.87E2,3.7E2,1.81E2,2E0,2.2E2,3.44E2,1.502E3,9.09E2,7.16E2,3.33E2,1.132E3,5.58E2,4.12E2,1.31E3,4.3E1,7.7E1,5.7E1,5.9E1,2.72E2,8E0,1.04E2,4.15E2,2.24E2,4.7E1,1.001E3,8.39E2,3.73E2,1.67E2,1.1E1,1.9E1,3.4E1,2.86E2,6E0,1E0,2E0,1.01E2,2.5E1,6E0,1.105E3,2.9E2,4E0,1.01E2,2.1E1,4.24E2,6.7E1,6.2E1,1E0,3.8E1,7.1E1,3E1,1E0,2E0,8E0,4.3E1,1.6E1,9E0,8E0,1.3E1],"tree_param":{"num_deleted":"0","num_feature":"10","num_nodes":"125","size_leaf_vector":"1"}},{"base_weights":[5.13916E-4,-1.0345646E-1,1.3998127E-1,1.2305993E-1,-1.2328428E-1,8.331239E-2,3.5757613E-1,-1.0788616E-2,2.927929E-1,-1.3759269E-1,1.039204E-1,3.0721498E-1,4.3155573E-2,2.45256E-1,4.3840632E-1,-1.0934149E-1,2.482129E-1,-4.7807562E-1,3.6442402E-1,-8.7437145E-2,-1.9679917E-1,4.8962507E-1,-3.5409756E-2,3.0991888E-2,3.9314115E-1,2.7063187E-2,4.5607162E-1,1.9430739E-1,4.441965E-1,4.496512E-1,-2.6198065E-1,4.2519877E-3,-2.9420757E-1,4.108823E-1,-1.4928544E-1,9.798099E-3,-5.8012426E-1,4.557869E-1,-5.4848023E-2,1.262931E-1,-1.4623854E-1,-8.278601E-2,-2.8631055E-1,6.2896335E-1,-1.9263272E-1,7.4129045E-2,-1.6551964E-1,-2.2917226E-2,6.221691E-1,2.8866613E-1,6.42151E-1,5.8347158E-2,-1.1801055E-1,2.1798462E-1,7.199073E-1,5.9243124E-2,2.7920038E-1,4.6064776E-1,-3.9473772E-2,4.9291366E-1,2.6023513E-1,1.181603E-1,-4.04111E-1,4.682678E-2,-6.946539E-2,2.1323149E-1,-1.0348971E-1,1.7606413E-1,-5.4496773E-2,-1.0837576E-2,-1.5800561E-1,3.1283057E-1,-1.21604905E-1,1.8822217E-2,-1.9242553E-1,-1.404558E-1,1.4872116E-1,-3.7514875E-3,-6.271916E-2,8.0545545E-2,7.3722308E-3,-2.7939547E-2,-7.066152E-2,6.1063718E-2,-4.7060482E-2,-7.0044875E-2,-1.1815353E-1,3.1169003E-1,1.2553671E-1,-1.2156896E-1,2.863726E-2,-6.606995E-2,6.497265E-2,2.509529E-1,-5.4610375E-2,-2.397159E-2,8.709745E-2,3.6480957E-1,2.5458585E-2,1.23779446E-1,4.564665E-2,2.1667765E-1,-5.0369866E-2,3.1545695E-2,-1.796486E-2,9.236918E-3,-9.918328E-2,-1.6125104E-1,9.699493E-2,2.419226E-1,2.1762872E-2,-2.1613896E-2,4.918905E-2,9.6050076E-2,-1.8587438E-2,7.365031E-2,1.5036665E-1,6.518251E-3,-4.2641833E-2,1.6552551E-1,8.529022E-2,1.7638938E-1,2.6269699E-2,-9.582854E-3,-1.3051218E-1],"categories":[],"categories_nodes":[],"categories_segments":[],"categories_sizes":[],"default_left":[0,0,0,0,0,0,0,0,0,0,0,0,0,0,0,0,0,0,0,0,0,0,0,0,0,0,0,0,0,0,0,0,0,0,0,0,0,0,0,0,0,0,0,0,0,0,0,0,0,0,0,0,0,0,0,0,0,0,0,0,0,0,0,0,0,0,0,0,0,0,0,0,0,0,0,0,0,0,0,0,0,0,0,0,0,0,0,0,0,0,0,0,0,0,0,0,0,0,0,0,0,0,0,0,0,0,0,0,0,0,0,0,0,0,0,0,0,0,0,0,0,0,0,0,0],"id":5,"left_children":[1,3,5,7,9,11,13,15,17,19,21,23,25,27,29,31,33,35,37,39,41,43,45,47,49,51,53,55,57,59,61,63,65,67,69,71,73,75,77,79,81,83,85,87,89,91,93,95,97,99,101,103,105,107,109,111,113,115,117,119,121,-1,123,-1,-1,-1,-1,-1,-1,-1,-1,-1,-1,-1,-1,-1,-1,-1,-1,-1,-1,-1,-1,-1,-1,-1,-1,-1,-1,-1,-1,-1,-1,-1,-1,-1,-1,-1,-1,-1,-1,-1,-1,-1,-1,-1,-1,-1,-1,-1,-1,-1,-1,-1,-1,-1,-1,-1,-1,-1,-1,-1,-1,-1,-1],"loss_changes":[2.394608E2,4.25076E1,8.693974E1,1.731466E1,2.829747E1,5.031058E1,1.3120361E1,1.0926461E1,1.8727537E1,2.4288406E1,2.774733E1,2.018612E1,3.1530546E1,6.116764E0,6.780716E0,6.5111213E0,7.6913147E0,1.449503E0,1.18232155E1,5.5730793E1,3.827745E1,1.3145008E1,5.4280605E0,6.4838357E0,1.669857E1,2.0747751E1,1.1024292E1,5.5903397E0,1.0048523E0,6.697815E0,1.4641893E0,6.9462624E0,6.264473E0,8.866604E0,1.4757057E0,2.995698E0,9.859352E-1,9.571075E0,3.63064E-1,1.3835096E1,1.646746E1,3.5074318E1,1.1849091E1,9.404449E0,1.5086143E0,8.727383E0,3.0317035E0,3.3613467E0,5.3212795E0,7.7026024E0,1.2515518E1,2.0813286E1,2.5666159E1,7.7335916E0,4.6453247E0,2.624062E0,4.21266E0,9.2448235E-1,3.450468E-2,8.152893E0,8.832969E0,0E0,1.2423551E-1,0E0,0E0,0E0,0E0,0E0,0E0,0E0,0E0,0E0,0E0,0E0,0E0,0E0,0E0,0E0,0E0,0E0,0E0,0E0,0E0,0E0,0E0,0E0,0E0,0E0,0E0,0E0,0E0,0E0,0E0,0E0,0E0,0E0,0E0,0E0,0E0,0E0,0E0,0E0,0E0,0E0,0E0,0E0,0E0,0E0,0E0,0E0,0E0,0E0,0E0,0E0,0E0,0E0,0E0,0E0,0E0,0E0,0E0,0E0,0E0,0E0,0E0],"parents":[2147483647,0,0,1,1,2,2,3,3,4,4,5,5,6,6,7,7,8,8,9,9,10,10,11,11,12,12,13,13,14,14,15,15,16,16,17,17,18,18,19,19,20,20,21,21,22,22,23,23,24,24,25,25,26,26,27,27,28,28,29,29,30,30,31,31,32,32,33,33,34,34,35,35,36,36,37,37,38,38,39,39,40,40,41,41,42,42,43,43,44,44,45,45,46,46,47,47,48,48,49,49,50,50,51,51,52,52,53,53,54,54,55,55,56,56,57,57,58,58,59,59,60,60,62,62],"right_children":[2,4,6,8,10,12,14,16,18,20,22,24,26,28,30,32,34,36,38,40,42,44,46,48,50,52,54,56,58,60,62,64,66,68,70,72,74,76,78,80,82,84,86,88,90,92,94,96,98,100,102,104,106,108,110,112,114,116,118,120,122,-1,124,-1,-1,-1,-1,-1,-1,-1,-1,-1,-1,-1,-1,-1,-1,-1,-1,-1,-1,-1,-1,-1,-1,-1,-1,-1,-1,-1,-1,-1,-1,-1,-1,-1,-1,-1,-1,-1,-1,-1,-1,-1,-1,-1,-1,-1,-1,-1,-1,-1,-1,-1,-1,-1,-1,-1,-1,-1,-1,-1,-1,-1,-1],"split_conditions":[-1.6513003E-2,-1.1007029E-1,1.30638E0,-5.0812364E-2,1.8561815E0,-7.4015826E-2,-5.2756083E-1,8.98194E-2,-1.2905581E0,-1.3196374E-1,-1.3927222E0,-9.2485124E-1,1.8561815E0,2.5668447E0,1.1827923E0,-4.054162E-1,1.162827E0,-1.504904E-1,1.0244571E0,6.337485E-1,-1.0233655E0,1.0900033E0,9.120923E-1,5.042026E-1,-9.7905835E-3,8.932965E-1,1.4721258E-1,-1.8412347E-1,1.2526705E0,9.261379E-1,-1.344567E0,6.1378324E-1,-1.1525944E0,1.2585504E0,1.1233094E-1,6.6431034E-1,-9.2319906E-1,-2.9131597E-1,-2.5195035E-1,-6.8442386E-1,9.9811393E-1,9.261379E-1,-1.3990411E-1,-1.4276614E0,-1.6472789E0,-7.4997E-1,-1.2257702E-1,8.199354E-1,9.086266E-1,-6.266062E-2,2.2827588E-1,9.3550164E-1,-9.0915346E-1,-8.296079E-1,1.0525483E0,-1.9292657E-1,1.0619121E0,-2.83795E-1,-8.453931E-1,-5.9490837E-3,-1.42267E0,1.181603E-1,2.1181403E-1,4.682678E-2,-6.946539E-2,2.1323149E-1,-1.0348971E-1,1.7606413E-1,-5.4496773E-2,-1.0837576E-2,-1.5800561E-1,3.1283057E-1,-1.21604905E-1,1.8822217E-2,-1.9242553E-1,-1.404558E-1,1.4872116E-1,-3.7514875E-3,-6.271916E-2,8.0545545E-2,7.3722308E-3,-2.7939547E-2,-7.066152E-2,6.1063718E-2,-4.7060482E-2,-7.0044875E-2,-1.1815353E-1,3.1169003E-1,1.2553671E-1,-1.2156896E-1,2.863726E-2,-6.606995E-2,6.497265E-2,2.509529E-1,-5.4610375E-2,-2.397159E-2,8.709745E-2,3.6480957E-1,2.5458585E-2,1.23779446E-1,4.564665E-2,2.1667765E-1,-5.0369866E-2,3.1545695E-2,-1.796486E-2,9.236918E-3,-9.918328E-2,-1.6125104E-1,9.699493E-2,2.419226E-1,2.1762872E-2,-2.1613896E-2,4.918905E-2,9.6050076E-2,-1.8587438E-2,7.365031E-2,1.5036665E-1,6.518251E-3,-4.2641833E-2,1.6552551E-1,8.529022E-2,1.7638938E-1,2.6269699E-2,-9.582854E-3,-1.3051218E-1],"split_indices":[0,5,0,1,1,5,1,3,0,6,7,1,1,0,7,2,7,5,6,7,7,6,6,3,3,7,2,3,7,6,6,7,0,6,8,1,6,3,2,6,7,6,7,7,7,6,8,4,3,8,8,6,6,4,6,4,6,3,1,5,7,0,2,0,0,0,0,0,0,0,0,0,0,0,0,0,0,0,0,0,0,0,0,0,0,0,0,0,0,0,0,0,0,0,0,0,0,0,0,0,0,0,0,0,0,0,0,0,0,0,0,0,0,0,0,0,0,0,0,0,0,0,0,0,0],"split_type":[0,0,0,0,0,0,0,0,0,0,0,0,0,0,0,0,0,0,0,0,0,0,0,0,0,0,0,0,0,0,0,0,0,0,0,0,0,0,0,0,0,0,0,0,0,0,0,0,0,0,0,0,0,0,0,0,0,0,0,0,0,0,0,0,0,0,0,0,0,0,0,0,0,0,0,0,0,0,0,0,0,0,0,0,0,0,0,0,0,0,0,0,0,0,0,0,0,0,0,0,0,0,0,0,0,0,0,0,0,0,0,0,0,0,0,0,0,0,0,0,0,0,0,0,0],"sum_hessian":[1.6512E4,9.46E3,7.052E3,7.61E2,8.699E3,5.596E3,1.456E3,4.26E2,3.35E2,8.184E3,5.15E2,8.5E2,4.746E3,6.11E2,8.45E2,3.09E2,1.17E2,2.8E1,3.07E2,4.432E3,3.752E3,1.36E2,3.79E2,2.02E2,6.48E2,4.569E3,1.77E2,4.88E2,1.23E2,8.32E2,1.3E1,1.92E2,1.17E2,8.3E1,3.4E1,5E0,2.3E1,2.52E2,5.5E1,9.56E2,3.476E3,1.651E3,2.101E3,1.13E2,2.3E1,2.06E2,1.73E2,1.86E2,1.6E1,4.58E2,1.9E2,3.759E3,8.1E2,9.4E1,8.3E1,1.89E2,2.99E2,1.19E2,4E0,6.76E2,1.56E2,2E0,1.1E1,1.17E2,7.5E1,5E0,1.12E2,6.4E1,1.9E1,2.7E1,7E0,1E0,4E0,2E0,2.1E1,1E1,2.42E2,4.4E1,1.1E1,3.98E2,5.58E2,2.181E3,1.295E3,3.39E2,1.312E3,1.411E3,6.9E2,3.7E1,7.6E1,1.3E1,1E1,6.7E1,1.39E2,2E0,1.71E2,1.58E2,2.8E1,7E0,9E0,2.39E2,2.19E2,1.73E2,1.7E1,2.693E3,1.066E3,4.77E2,3.33E2,1.1E1,8.3E1,7.3E1,1E1,8.4E1,1.05E2,2.67E2,3.2E1,2E1,9.9E1,3E0,1E0,5.26E2,1.5E2,5.3E1,1.03E2,1E0,1E1],"tree_param":{"num_deleted":"0","num_feature":"10","num_nodes":"125","size_leaf_vector":"1"}},{"base_weights":[4.8030072E-4,-3.7109613E-2,2.0623E-1,6.125764E-3,-1.2723003E-1,2.5157937E-1,8.306511E-2,8.6322494E-2,-6.107826E-2,1.15809284E-1,-1.3967128E-1,2.8998178E-1,6.1816406E-2,-1.0783058E-2,2.2839592E-1,4.1849017E-1,8.235937E-3,-1.181234E-2,-3.7423167E-1,2.9464933E-1,-1.850892E-1,1.1046679E-1,-1.4872377E-1,3.4330755E-1,1.3988043E-1,1.4113373E-1,-4.299138E-1,-2.18873E-1,4.0499575E-2,1.6565251E-1,4.362181E-1,7.8772676E-1,1.3569991E-1,6.858044E-2,-8.759564E-2,1.1769275E-1,-1.0818595E-1,-2.7457082E-1,-5.656998E-1,2.523967E-1,1.3765402E0,-8.615953E-2,-3.6633205E-1,3.157484E-2,9.4550633E-1,-1.353359E-1,-2.8498006E-1,5.497979E-1,2.9569665E-1,4.7098175E-1,1.14552565E-2,2.4442703E-1,-2.8074918E-2,-7.565869E-1,-1.96209E-1,1.0837528E-1,-3.3146313E-1,3.0470934E-2,5.886678E-1,1.3046683E-1,4.9163377E-1,6.048306E-1,2.6971528E-1,2.8749657E-1,1.9381192E-1,1.9699827E-1,7.2298977E-3,1.3780962E-1,8.143203E-3,3.1289998E-3,-1.1407601E-1,1.1892798E-1,8.169423E-3,-2.1822657E-2,-7.6780975E-2,-1.9188495E-1,-6.675482E-2,-2.5838423E-1,-1.265147E-1,5.049981E-2,1.7472544E-1,1.9450773E-2,5.064772E-1,-1.6721703E-1,-1.4476233E-2,-8.283636E-2,-2.23236E-1,2.6840317E-1,-2.1921494E-3,1.05475396E-1,5.4763925E-1,-3.4082267E-2,-7.449457E-2,1.4662255E-1,-8.842342E-2,-4.9342584E-2,1.7138882E-1,1.08779304E-1,1.1399846E-2,1.7731135E-1,1.1241394E-1,9.0255365E-2,-2.8186098E-2,1.08067684E-1,-3.7762947E-2,2.2911002E-1,-2.0214876E-2,-2.931971E-1,-4.5667868E-2,-1.6675317E-1,4.3466035E-3,2.2744648E-1,-1.0237318E-2,-7.4272625E-2,-2.0936708E-1,2.3730995E-2,-2.1338599E-2,2.5399545E-1,1.45401005E-2,-1.274159E-1,4.52637E-2,1.5864013E-1,-3.217986E-2,1.9185476E-1,-6.0155906E-2,2.3940405E-2,1.5652665E-1],"categories":[],"categories_nodes":[],"categories_segments":[],"categories_sizes":[],"default_left":[0,0,0,0,0,0,0,0,0,0,0,0,0,0,0,0,0,0,0,0,0,0,0,0,0,0,0,0,0,0,0,0,0,0,0,0,0,0,0,0,0,0,0,0,0,0,0,0,0,0,0,0,0,0,0,0,0,0,0,0,0,0,0,0,0,0,0,0,0,0,0,0,0,0,0,0,0,0,0,0,0,0,0,0,0,0,0,0,0,0,0,0,0,0,0,0,0,0,0,0,0,0,0,0,0,0,0,0,0,0,0,0,0,0,0,0,0,0,0,0,0,0,0,0,0,0,0],"id":6,"left_children":[1,3,5,7,9,11,13,15,17,19,21,23,25,27,29,31,33,35,37,39,41,43,45,47,49,51,53,55,57,59,61,63,65,67,69,71,73,75,77,79,81,83,85,87,89,91,93,95,97,99,101,103,105,107,109,111,113,115,117,119,121,123,125,-1,-1,-1,-1,-1,-1,-1,-1,-1,-1,-1,-1,-1,-1,-1,-1,-1,-1,-1,-1,-1,-1,-1,-1,-1,-1,-1,-1,-1,-1,-1,-1,-1,-1,-1,-1,-1,-1,-1,-1,-1,-1,-1,-1,-1,-1,-1,-1,-1,-1,-1,-1,-1,-1,-1,-1,-1,-1,-1,-1,-1,-1,-1,-1],"loss_changes":[1.2772107E2,5.4406075E1,1.4227585E1,5.0866394E1,1.3704529E1,1.3565712E1,9.386116E0,1.1160704E2,7.9217285E1,1.1947143E1,9.769066E0,1.2358612E1,1.2346535E1,4.4801807E0,3.4483986E0,8.541025E1,2.0159447E1,5.5402847E1,1.3163818E1,6.0066347E0,1.4566517E0,9.917709E0,7.544548E0,1.1074478E1,1.7343477E1,4.7609105E0,3.2107334E0,3.0940511E0,1.8346808E0,2.3330607E0,1.5774851E0,7.961624E0,2.7018988E1,3.462379E1,3.864665E1,4.7745735E1,1.3309134E1,8.6177635E0,9.765816E0,3.647254E0,1.9349442E0,9.555242E-1,7.8286886E-1,4.6712594E0,6.1523314E0,9.268326E0,2.9470043E0,3.3646927E0,1.6036858E1,1.0961018E0,9.027215E0,7.2921696E0,3.2882614E0,2.2525082E0,2.053958E0,2.062926E0,1.7330208E0,1.6460484E0,7.9514337E-1,2.217267E0,5.0190496E-1,9.662466E-1,1.5379395E0,0E0,0E0,0E0,0E0,0E0,0E0,0E0,0E0,0E0,0E0,0E0,0E0,0E0,0E0,0E0,0E0,0E0,0E0,0E0,0E0,0E0,0E0,0E0,0E0,0E0,0E0,0E0,0E0,0E0,0E0,0E0,0E0,0E0,0E0,0E0,0E0,0E0,0E0,0E0,0E0,0E0,0E0,0E0,0E0,0E0,0E0,0E0,0E0,0E0,0E0,0E0,0E0,0E0,0E0,0E0,0E0,0E0,0E0,0E0,0E0,0E0,0E0,0E0,0E0],"parents":[2147483647,0,0,1,1,2,2,3,3,4,4,5,5,6,6,7,7,8,8,9,9,10,10,11,11,12,12,13,13,14,14,15,15,16,16,17,17,18,18,19,19,20,20,21,21,22,22,23,23,24,24,25,25,26,26,27,27,28,28,29,29,30,30,31,31,32,32,33,33,34,34,35,35,36,36,37,37,38,38,39,39,40,40,41,41,42,42,43,43,44,44,45,45,46,46,47,47,48,48,49,49,50,50,51,51,52,52,53,53,54,54,55,55,56,56,57,57,58,58,59,59,60,60,61,61,62,62],"right_children":[2,4,6,8,10,12,14,16,18,20,22,24,26,28,30,32,34,36,38,40,42,44,46,48,50,52,54,56,58,60,62,64,66,68,70,72,74,76,78,80,82,84,86,88,90,92,94,96,98,100,102,104,106,108,110,112,114,116,118,120,122,124,126,-1,-1,-1,-1,-1,-1,-1,-1,-1,-1,-1,-1,-1,-1,-1,-1,-1,-1,-1,-1,-1,-1,-1,-1,-1,-1,-1,-1,-1,-1,-1,-1,-1,-1,-1,-1,-1,-1,-1,-1,-1,-1,-1,-1,-1,-1,-1,-1,-1,-1,-1,-1,-1,-1,-1,-1,-1,-1,-1,-1,-1,-1,-1,-1],"split_conditions":[8.70697E-1,5.9923376E-3,6.8096984E-3,-5.252405E-1,-1.3328265E0,8.633486E-1,1.5566727E0,6.0380065E-1,-1.948085E-1,1.0619121E0,-9.548484E-1,9.261379E-1,-7.827431E-1,-4.6314085E-1,-4.642299E-2,-6.8910575E-1,1.0380443E0,1.0197753E0,-3.267075E-1,1.0385027E0,3.4647802E-1,5.0539416E-1,9.823203E-1,-1.2230178E0,-1.42267E0,-9.4660836E-1,-2.797921E-2,-1.0932438E0,5.848523E-1,3.4971123E0,-6.222484E-3,5.7385284E-1,9.967863E-2,-9.0915346E-1,-8.20198E-1,-1.3478005E0,1.7688737E0,-8.49945E-2,-4.4232283E-2,8.1418976E-2,-5.929496E-1,-1.1369103E0,1.6565089E0,-1.1104188E0,-1.0630039E0,1.0380443E0,-1.413788E-1,7.48227E-1,-4.784218E-1,1.2747447E0,-1.3240228E0,1.2227228E0,-9.329251E-1,1.1827923E0,-2.3796229E-1,7.48227E-1,-5.252405E-1,-1.320623E-1,-7.202726E-1,2.3078987E-1,1.0525483E0,1.2127402E0,1.7569063E0,2.8749657E-1,1.9381192E-1,1.9699827E-1,7.2298977E-3,1.3780962E-1,8.143203E-3,3.1289998E-3,-1.1407601E-1,1.1892798E-1,8.169423E-3,-2.1822657E-2,-7.6780975E-2,-1.9188495E-1,-6.675482E-2,-2.5838423E-1,-1.265147E-1,5.049981E-2,1.7472544E-1,1.9450773E-2,5.064772E-1,-1.6721703E-1,-1.4476233E-2,-8.283636E-2,-2.23236E-1,2.6840317E-1,-2.1921494E-3,1.05475396E-1,5.4763925E-1,-3.4082267E-2,-7.449457E-2,1.4662255E-1,-8.842342E-2,-4.9342584E-2,1.7138882E-1,1.08779304E-1,1.1399846E-2,1.7731135E-1,1.1241394E-1,9.0255365E-2,-2.8186098E-2,1.08067684E-1,-3.7762947E-2,2.2911002E-1,-2.0214876E-2,-2.931971E-1,-4.5667868E-2,-1.6675317E-1,4.3466035E-3,2.2744648E-1,-1.0237318E-2,-7.4272625E-2,-2.0936708E-1,2.3730995E-2,-2.1338599E-2,2.5399545E-1,1.45401005E-2,-1.274159E-1,4.52637E-2,1.5864013E-1,-3.217986E-2,1.9185476E-1,-6.0155906E-2,2.3940405E-2,1.5652665E-1],"split_indices":[0,5,5,6,7,7,0,7,7,6,9,6,6,4,3,6,7,6,0,6,1,1,6,7,7,6,5,7,1,0,8,7,7,6,6,7,6,5,5,5,4,4,6,4,9,7,8,6,6,0,9,7,4,7,4,6,6,3,9,2,6,7,2,0,0,0,0,0,0,0,0,0,0,0,0,0,0,0,0,0,0,0,0,0,0,0,0,0,0,0,0,0,0,0,0,0,0,0,0,0,0,0,0,0,0,0,0,0,0,0,0,0,0,0,0,0,0,0,0,0,0,0,0,0,0,0,0],"split_type":[0,0,0,0,0,0,0,0,0,0,0,0,0,0,0,0,0,0,0,0,0,0,0,0,0,0,0,0,0,0,0,0,0,0,0,0,0,0,0,0,0,0,0,0,0,0,0,0,0,0,0,0,0,0,0,0,0,0,0,0,0,0,0,0,0,0,0,0,0,0,0,0,0,0,0,0,0,0,0,0,0,0,0,0,0,0,0,0,0,0,0,0,0,0,0,0,0,0,0,0,0,0,0,0,0,0,0,0,0,0,0,0,0,0,0,0,0,0,0,0,0,0,0,0,0,0,0],"sum_hessian":[1.6512E4,1.3962E4,2.55E3,9.436E3,4.526E3,1.863E3,6.87E2,4.302E3,5.134E3,2.2E2,4.306E3,1.549E3,3.14E2,4.18E2,2.69E2,8.18E2,3.484E3,4.437E3,6.97E2,1.38E2,8.2E1,1.5E2,4.156E3,1.142E3,4.07E2,2.71E2,4.3E1,8.2E1,3.36E2,2.08E2,6.1E1,3.54E2,4.64E2,2.138E3,1.346E3,1.893E3,2.544E3,4.6E2,2.37E2,1.34E2,4E0,5.4E1,2.8E1,1.38E2,1.2E1,3.786E3,3.7E2,2.12E2,9.3E2,1.13E2,2.94E2,1.68E2,1.03E2,1.7E1,2.6E1,2.1E1,6.1E1,3.31E2,5E0,1.89E2,1.9E1,2.9E1,3.2E1,1.58E2,1.96E2,8.1E1,3.83E2,2.04E2,1.934E3,1.009E3,3.37E2,4.63E2,1.43E3,2.053E3,4.91E2,5.6E1,4.04E2,7.6E1,1.61E2,1.08E2,2.6E1,1E0,3E0,3E0,5.1E1,2.4E1,4E0,5E0,1.33E2,8E0,4E0,3.177E3,6.09E2,4E0,3.66E2,6E0,2.06E2,7.38E2,1.92E2,4.8E1,6.5E1,7.8E1,2.16E2,1.28E2,4E1,4E0,9.9E1,1.2E1,5E0,9E0,1.7E1,3E0,1.8E1,5.1E1,1E1,2.24E2,1.07E2,3E0,2E0,6E0,1.83E2,1.8E1,1E0,2.8E1,1E0,1.9E1,1.3E1],"tree_param":{"num_deleted":"0","num_feature":"10","num_nodes":"127","size_leaf_vector":"1"}},{"base_weights":[4.676834E-4,-3.8507927E-2,1.0307649E-1,7.99538E-4,-9.065313E-2,4.7675084E-2,1.826923E-1,2.5544228E-2,-1.13132335E-1,-8.530902E-2,-3.593568E-1,-1.6294982E-2,1.3010776E-1,2.2182304E-1,5.6584574E-2,2.9869497E-1,3.2595578E-3,-1.6403727E-1,1.5116166E-2,1.9382447E-2,-1.05929025E-1,-2.7063724E-1,-5.480991E-1,6.1552014E-2,-1.2674937E-1,8.587034E-2,2.971372E-1,3.851609E-2,2.5805083E-1,2.779742E-3,2.2345345E-1,-8.7179504E-2,3.7546095E-1,6.0976304E-2,-7.412299E-2,-1.08143196E-1,-2.1597354E-1,-1.82773E-2,4.8632315E-1,-1.4297742E-1,7.451698E-2,-1.9894166E-1,-8.431653E-2,1.157819E-1,-2.8370517E-1,-8.069881E-2,-5.775509E-1,4.1811082E-1,-6.9707506E-3,-2.3847723E-1,-5.9274185E-2,2.0161654E-1,3.8564894E-2,3.330963E-1,-8.249823E-2,-1.7369938E-1,9.6497126E-2,2.7091542E-1,-1.4946477E-1,9.732995E-3,-2.3168272E-1,7.311079E-1,1.864237E-1,-1.3738206E-1,2.0158818E-2,3.1723738E-2,1.3661754E-1,8.828355E-2,-2.4007991E-4,-2.8242124E-4,-7.787546E-2,1.3834569E-3,-4.0482033E-2,-4.2338975E-2,-8.251429E-2,7.284471E-2,-1.1689768E-2,3.015071E-1,5.8973316E-2,-1.0984514E-2,-5.520658E-2,2.0417587E-1,1.8131666E-2,-9.68833E-2,-3.1609476E-2,-1.9935314E-2,-7.2885536E-2,5.780656E-2,-5.704701E-3,-3.247546E-2,-9.1588445E-2,7.906133E-3,-4.4220597E-2,-1.7950062E-1,-5.9392083E-2,8.168631E-2,2.027476E-1,1.9261044E-2,-5.2805483E-2,-9.306884E-2,7.942934E-3,-2.7869986E-2,9.249887E-2,1.0541722E-1,2.8251434E-2,3.5375234E-2,-5.8357976E-2,1.415518E-1,6.583115E-2,7.134302E-2,-7.434883E-2,-1.0600395E-1,2.37508E-2,1.9373448E-1,2.1422703E-2,8.302848E-2,-1.2731762E-1,1.0090304E-1,-8.220944E-2,2.0398792E-2,-2.2362882E-2,3.4974366E-1,3.4088E-2,3.705758E-2,1.2285917E-1],"categories":[],"categories_nodes":[],"categories_segments":[],"categories_sizes":[],"default_left":[0,0,0,0,0,0,0,0,0,0,0,0,0,0,0,0,0,0,0,0,0,0,0,0,0,0,0,0,0,0,0,0,0,0,0,0,0,0,0,0,0,0,0,0,0,0,0,0,0,0,0,0,0,0,0,0,0,0,0,0,0,0,0,0,0,0,0,0,0,0,0,0,0,0,0,0,0,0,0,0,0,0,0,0,0,0,0,0,0,0,0,0,0,0,0,0,0,0,0,0,0,0,0,0,0,0,0,0,0,0,0,0,0,0,0,0,0,0,0,0,0,0,0,0,0],"id":7,"left_children":[1,3,5,7,9,11,13,15,17,19,21,23,25,27,29,31,33,35,37,39,41,43,45,47,49,51,53,55,57,59,61,63,65,67,69,71,73,75,77,79,81,83,85,87,89,91,93,95,97,99,101,103,105,107,109,111,113,115,117,119,-1,121,123,-1,-1,-1,-1,-1,-1,-1,-1,-1,-1,-1,-1,-1,-1,-1,-1,-1,-1,-1,-1,-1,-1,-1,-1,-1,-1,-1,-1,-1,-1,-1,-1,-1,-1,-1,-1,-1,-1,-1,-1,-1,-1,-1,-1,-1,-1,-1,-1,-1,-1,-1,-1,-1,-1,-1,-1,-1,-1,-1,-1,-1,-1],"loss_changes":[6.6043434E1,2.4530832E1,2.0042915E1,1.9243992E1,7.3560295E0,1.4144906E1,9.190643E0,3.4135338E1,7.9541693E0,1.0892891E1,1.5261784E0,1.3000198E1,8.634333E0,9.439926E0,3.976789E0,1.2562847E1,2.316659E1,2.5080013E0,5.4690156E0,7.4494634E0,8.4563675E0,3.8632727E-1,3.8013077E-1,2.1674452E1,4.697651E0,5.073419E0,3.3720608E0,2.9206173E0,6.2686157E0,1.8182732E0,1.8939219E0,4.0945554E0,7.5620155E0,4.2820103E1,3.007618E1,1.2756858E0,1.9551983E0,1.7649965E0,3.25913E0,9.1440153E-1,5.257427E0,9.179365E0,9.682131E0,3.4764577E-2,2.2453356E-1,2.5306841E-2,1.1033535E-1,5.1900234E0,8.975012E0,4.4758015E0,4.8617773E0,4.2957916E0,1.2230563E1,3.4288101E0,1.2239894E0,2.3447578E0,2.5170605E0,4.800194E0,2.3312433E0,1.6450645E0,0E0,1.7464848E0,1.3807864E0,0E0,0E0,0E0,0E0,0E0,0E0,0E0,0E0,0E0,0E0,0E0,0E0,0E0,0E0,0E0,0E0,0E0,0E0,0E0,0E0,0E0,0E0,0E0,0E0,0E0,0E0,0E0,0E0,0E0,0E0,0E0,0E0,0E0,0E0,0E0,0E0,0E0,0E0,0E0,0E0,0E0,0E0,0E0,0E0,0E0,0E0,0E0,0E0,0E0,0E0,0E0,0E0,0E0,0E0,0E0,0E0,0E0,0E0,0E0,0E0,0E0,0E0],"parents":[2147483647,0,0,1,1,2,2,3,3,4,4,5,5,6,6,7,7,8,8,9,9,10,10,11,11,12,12,13,13,14,14,15,15,16,16,17,17,18,18,19,19,20,20,21,21,22,22,23,23,24,24,25,25,26,26,27,27,28,28,29,29,30,30,31,31,32,32,33,33,34,34,35,35,36,36,37,37,38,38,39,39,40,40,41,41,42,42,43,43,44,44,45,45,46,46,47,47,48,48,49,49,50,50,51,51,52,52,53,53,54,54,55,55,56,56,57,57,58,58,59,59,61,61,62,62],"right_children":[2,4,6,8,10,12,14,16,18,20,22,24,26,28,30,32,34,36,38,40,42,44,46,48,50,52,54,56,58,60,62,64,66,68,70,72,74,76,78,80,82,84,86,88,90,92,94,96,98,100,102,104,106,108,110,112,114,116,118,120,-1,122,124,-1,-1,-1,-1,-1,-1,-1,-1,-1,-1,-1,-1,-1,-1,-1,-1,-1,-1,-1,-1,-1,-1,-1,-1,-1,-1,-1,-1,-1,-1,-1,-1,-1,-1,-1,-1,-1,-1,-1,-1,-1,-1,-1,-1,-1,-1,-1,-1,-1,-1,-1,-1,-1,-1,-1,-1,-1,-1,-1,-1,-1,-1],"split_conditions":[3.9300904E-1,-1.3443423E-2,-1.2178558E-1,1.3334602E0,1.4473315E0,3.6643478E-1,6.8096984E-3,-1.4176787E0,-8.786176E-1,-8.20198E-1,-4.8777917E-1,6.187746E-1,4.259361E-1,-1.3221416E0,1.6126267E0,9.963659E-1,-4.784218E-1,-2.0972852E-1,5.4017425E0,-1.344567E0,-7.640156E-1,-3.9459375E-1,-1.3352032E0,-6.9846946E-1,5.013132E-2,-1.1381656E0,7.8348774E-1,-5.0729346E-1,1.2077488E0,1.4473315E0,-1.1994292E0,-8.914809E-2,-2.891866E-1,6.0879195E-1,-4.5435646E-1,-1.797018E0,1.4270976E0,-7.726646E-1,1.5956447E0,-1.3867037E0,6.387398E-1,6.7367893E-1,8.633486E-1,-7.8223497E-1,-1.3679763E0,-2.3680216E-1,1.328574E0,-7.640156E-1,-9.385133E-1,-1.1900681E-2,8.232265E-1,9.542291E-1,-4.784218E-1,-6.5165085E-1,-6.313533E-2,8.112553E-2,-1.11490645E-1,1.4190577E0,-1.1632254E0,-5.252405E-1,-2.3168272E-1,2.083419E0,8.98194E-2,-1.3738206E-1,2.0158818E-2,3.1723738E-2,1.3661754E-1,8.828355E-2,-2.4007991E-4,-2.8242124E-4,-7.787546E-2,1.3834569E-3,-4.0482033E-2,-4.2338975E-2,-8.251429E-2,7.284471E-2,-1.1689768E-2,3.015071E-1,5.8973316E-2,-1.0984514E-2,-5.520658E-2,2.0417587E-1,1.8131666E-2,-9.68833E-2,-3.1609476E-2,-1.9935314E-2,-7.2885536E-2,5.780656E-2,-5.704701E-3,-3.247546E-2,-9.1588445E-2,7.906133E-3,-4.4220597E-2,-1.7950062E-1,-5.9392083E-2,8.168631E-2,2.027476E-1,1.9261044E-2,-5.2805483E-2,-9.306884E-2,7.942934E-3,-2.7869986E-2,9.249887E-2,1.0541722E-1,2.8251434E-2,3.5375234E-2,-5.8357976E-2,1.415518E-1,6.583115E-2,7.134302E-2,-7.434883E-2,-1.0600395E-1,2.37508E-2,1.9373448E-1,2.1422703E-2,8.302848E-2,-1.2731762E-1,1.0090304E-1,-8.220944E-2,2.0398792E-2,-2.2362882E-2,3.4974366E-1,3.4088E-2,3.705758E-2,1.2285917E-1],"split_indices":[0,5,3,6,7,2,5,7,7,6,0,7,1,1,0,6,6,1,2,6,6,3,6,6,2,7,7,4,7,7,6,5,1,7,7,7,6,9,6,6,7,7,7,0,6,0,4,6,7,4,1,6,6,6,5,8,5,8,1,6,0,0,3,0,0,0,0,0,0,0,0,0,0,0,0,0,0,0,0,0,0,0,0,0,0,0,0,0,0,0,0,0,0,0,0,0,0,0,0,0,0,0,0,0,0,0,0,0,0,0,0,0,0,0,0,0,0,0,0,0,0,0,0,0,0],"split_type":[0,0,0,0,0,0,0,0,0,0,0,0,0,0,0,0,0,0,0,0,0,0,0,0,0,0,0,0,0,0,0,0,0,0,0,0,0,0,0,0,0,0,0,0,0,0,0,0,0,0,0,0,0,0,0,0,0,0,0,0,0,0,0,0,0,0,0,0,0,0,0,0,0,0,0,0,0,0,0,0,0,0,0,0,0,0,0,0,0,0,0,0,0,0,0,0,0,0,0,0,0,0,0,0,0,0,0,0,0,0,0,0,0,0,0,0,0,0,0,0,0,0,0,0,0],"sum_hessian":[1.6512E4,1.1967E4,4.545E3,6.824E3,5.143E3,2.681E3,1.864E3,5.607E3,1.217E3,5.044E3,9.9E1,1.51E3,1.171E3,1.422E3,4.42E2,4.22E2,5.185E3,8.71E2,3.46E2,8.3E2,4.214E3,6.9E1,3E1,8.86E2,6.24E2,9.27E2,2.44E2,2.35E2,1.187E3,3.35E2,1.07E2,7E1,3.52E2,2.97E3,2.215E3,4.21E2,4.5E2,3.24E2,2.2E1,2.1E2,6.2E2,7.93E2,3.421E3,2E0,6.7E1,2E0,2.8E1,1.42E2,7.44E2,2.34E2,3.9E2,2.68E2,6.59E2,2.23E2,2.1E1,5E1,1.85E2,1.151E3,3.6E1,3.33E2,2E0,6E0,1.01E2,2E1,5E1,8.1E1,2.71E2,6.21E2,2.349E3,1.589E3,6.26E2,8.1E1,3.4E2,2E2,2.5E2,2.3E1,3.01E2,7E0,1.5E1,5.9E1,1.51E2,1.3E1,6.07E2,3.4E2,4.53E2,3.076E3,3.45E2,1E0,1E0,8E0,5.9E1,1E0,1E0,2.6E1,2E0,9.2E1,5E1,5.24E2,2.2E2,1.84E2,5E1,3.58E2,3.2E1,1.11E2,1.57E2,4.92E2,1.67E2,9.9E1,1.24E2,7E0,1.4E1,2.9E1,2.1E1,7E0,1.78E2,1.142E3,9E0,7E0,2.9E1,1.97E2,1.36E2,3E0,3E0,8E1,2.1E1],"tree_param":{"num_deleted":"0","num_feature":"10","num_nodes":"125","size_leaf_vector":"1"}},{"base_weights":[3.8002816E-4,-2.1643968E-2,9.567987E-2,1.11161314E-1,-3.3704616E-2,1.020597E-1,-5.1917565E-1,2.0254414E-1,-7.538294E-2,-4.8831413E-3,-1.4157486E-1,1.317553E-1,-1.380703E-2,-5.377937E-1,8.697671E-3,8.24731E-2,3.108254E-1,4.7038548E-2,-1.1402626E-1,2.8869212E-1,-1.6614307E-2,-6.2480323E-2,-1.8719423E-1,2.3850548E-1,9.1446795E-2,-1.8440414E-2,4.330036E-1,-5.6663257E-1,-2.3926022E-2,4.4167927E-1,-3.5743024E-3,4.7283483E-1,1.4969642E-1,4.1148457E-1,-9.63313E-3,-7.771991E-2,-2.2183505E-1,3.1760764E-1,-9.3617946E-2,4.646157E-4,-1.3839874E-1,4.1459242E-1,-6.545865E-2,-2.5371253E-1,-1.5514255E-1,3.2892606E-1,1.16267726E-1,1.4370455E-1,-3.254935E-1,7.960161E-3,-2.0402342E-1,-1.7236207E-2,-5.827656E-1,-1.5217109E-1,1.4774917E-1,1.4751689E-1,-1.3265911E-2,3.5616E-2,1.8734108E-1,-1.0104756E-1,5.3986423E-2,-3.918704E-2,1.5989056E-1,-2.1334535E-2,6.454859E-2,9.2308375E-4,-3.90407E-2,-4.9162503E-2,-1.2216241E-1,1.1039594E-1,2.2611814E-2,4.0560715E-2,-1.3162158E-1,8.642225E-3,-2.6484614E-2,3.8762885E-1,-4.2982567E-2,3.2795262E-1,-2.071799E-2,-7.95669E-2,1.3377604E-1,-1.2338167E-3,-5.5292096E-2,-2.4688508E-1,1.0204677E-1,1.2965564E-1,1.617482E-2,7.6419346E-2,2.0183858E-2,-2.821397E-2,-2.3608874E-1,4.155713E-2,-1.45506365E-2,-4.621989E-2,-9.968547E-2,-1.7915453E-1,-2.9029334E-2],"categories":[],"categories_nodes":[],"categories_segments":[],"categories_sizes":[],"default_left":[0,0,0,0,0,0,0,0,0,0,0,0,0,0,0,0,0,0,0,0,0,0,0,0,0,0,0,0,0,0,0,0,0,0,0,0,0,0,0,0,0,0,0,0,0,0,0,0,0,0,0,0,0,0,0,0,0,0,0,0,0,0,0,0,0,0,0,0,0,0,0,0,0,0,0,0,0,0,0,0,0,0,0,0,0,0,0,0,0,0,0,0,0,0,0,0,0],"id":8,"left_children":[1,3,5,7,9,11,13,15,17,19,21,23,25,27,-1,29,31,33,35,37,39,41,43,45,47,49,-1,51,-1,53,55,57,59,61,63,65,67,69,71,73,75,-1,77,79,81,83,85,87,89,91,93,-1,95,-1,-1,-1,-1,-1,-1,-1,-1,-1,-1,-1,-1,-1,-1,-1,-1,-1,-1,-1,-1,-1,-1,-1,-1,-1,-1,-1,-1,-1,-1,-1,-1,-1,-1,-1,-1,-1,-1,-1,-1,-1,-1,-1,-1],"loss_changes":[3.4660934E1,2.148919E1,1.2213274E1,1.9056704E1,3.823354E1,1.056143E1,3.4217834E-1,9.725447E0,1.7462883E0,3.3432064E1,9.344475E0,1.04902725E1,4.259835E0,3.6430073E-1,0E0,1.1036007E1,1.0214355E1,1.8421494E0,1.0787194E0,4.1531315E0,1.9414288E1,4.177415E0,3.4656868E0,7.356083E0,3.872112E1,3.0687099E0,0E0,2.0474052E-1,0E0,3.5771303E0,5.8397627E0,1.0450344E1,2.9901567E0,8.599074E-1,1.0933275E0,8.9399123E-1,6.853647E-1,4.2068825E0,2.1915252E0,2.0595537E1,8.193338E0,0E0,4.035296E0,4.4105606E0,4.89727E0,5.2471313E0,5.610326E0,1.3372524E1,2.1073496E1,4.053902E0,4.4859672E-1,0E0,1.3838863E-1,0E0,0E0,0E0,0E0,0E0,0E0,0E0,0E0,0E0,0E0,0E0,0E0,0E0,0E0,0E0,0E0,0E0,0E0,0E0,0E0,0E0,0E0,0E0,0E0,0E0,0E0,0E0,0E0,0E0,0E0,0E0,0E0,0E0,0E0,0E0,0E0,0E0,0E0,0E0,0E0,0E0,0E0,0E0,0E0],"parents":[2147483647,0,0,1,1,2,2,3,3,4,4,5,5,6,6,7,7,8,8,9,9,10,10,11,11,12,12,13,13,15,15,16,16,17,17,18,18,19,19,20,20,21,21,22,22,23,23,24,24,25,25,27,27,29,29,30,30,31,31,32,32,33,33,34,34,35,35,36,36,37,37,38,38,39,39,40,40,42,42,43,43,44,44,45,45,46,46,47,47,48,48,49,49,50,50,52,52],"right_children":[2,4,6,8,10,12,14,16,18,20,22,24,26,28,-1,30,32,34,36,38,40,42,44,46,48,50,-1,52,-1,54,56,58,60,62,64,66,68,70,72,74,76,-1,78,80,82,84,86,88,90,92,94,-1,96,-1,-1,-1,-1,-1,-1,-1,-1,-1,-1,-1,-1,-1,-1,-1,-1,-1,-1,-1,-1,-1,-1,-1,-1,-1,-1,-1,-1,-1,-1,-1,-1,-1,-1,-1,-1,-1,-1,-1,-1,-1,-1,-1,-1],"split_conditions":[3.6643478E-1,-1.3927222E0,1.6968969E0,1.3147328E0,9.261379E-1,1.0900033E0,5.0539416E-1,1.0010477E0,1.4270976E0,-1.2180265E0,-3.6864468E-1,-7.6880884E-1,5.1782486E1,5.390809E0,8.697671E-3,-3.78661E-1,1.0619121E0,-8.7940437E-1,-1.5873832E0,1.048035E-1,9.5221795E-2,-1.2225665E0,1.0244571E0,9.542291E-1,-1.3196374E-1,1.7688737E0,4.330036E-1,3.8404343E-1,-2.3926022E-2,-1.1322369E-1,9.261379E-1,-6.466374E-1,-1.1068523E0,-8.0153894E-1,-1.5374701E0,1.932739E0,1.9941221E-1,9.0272856E-1,2.9579755E-2,8.932965E-1,-1.5668013E0,4.1459242E-1,-2.0372643E0,1.1699237E-1,1.0712757E0,-1.197841E0,-1.4076961E0,7.784964E-1,5.944539E-1,-1.3128613E0,1.8134575E-1,-1.7236207E-2,8.4382676E-2,-1.5217109E-1,1.4774917E-1,1.4751689E-1,-1.3265911E-2,3.5616E-2,1.8734108E-1,-1.0104756E-1,5.3986423E-2,-3.918704E-2,1.5989056E-1,-2.1334535E-2,6.454859E-2,9.2308375E-4,-3.90407E-2,-4.9162503E-2,-1.2216241E-1,1.1039594E-1,2.2611814E-2,4.0560715E-2,-1.3162158E-1,8.642225E-3,-2.6484614E-2,3.8762885E-1,-4.2982567E-2,3.2795262E-1,-2.071799E-2,-7.95669E-2,1.3377604E-1,-1.2338167E-3,-5.5292096E-2,-2.4688508E-1,1.0204677E-1,1.2965564E-1,1.617482E-2,7.6419346E-2,2.0183858E-2,-2.821397E-2,-2.3608874E-1,4.155713E-2,-1.45506365E-2,-4.621989E-2,-9.968547E-2,-1.7915453E-1,-2.9029334E-2],"split_indices":[2,7,7,6,6,6,1,6,6,7,1,7,3,3,0,0,6,0,7,3,5,4,6,6,6,6,0,2,0,5,6,2,0,2,7,6,3,6,2,7,0,0,1,5,6,4,7,7,0,7,9,0,5,0,0,0,0,0,0,0,0,0,0,0,0,0,0,0,0,0,0,0,0,0,0,0,0,0,0,0,0,0,0,0,0,0,0,0,0,0,0,0,0,0,0,0,0],"split_type":[0,0,0,0,0,0,0,0,0,0,0,0,0,0,0,0,0,0,0,0,0,0,0,0,0,0,0,0,0,0,0,0,0,0,0,0,0,0,0,0,0,0,0,0,0,0,0,0,0,0,0,0,0,0,0,0,0,0,0,0,0,0,0,0,0,0,0,0,0,0,0,0,0,0,0,0,0,0,0,0,0,0,0,0,0,0,0,0,0,0,0,0,0,0,0,0,0],"sum_hessian":[1.6512E4,1.3413E4,3.099E3,1.116E3,1.2297E4,3.068E3,3.1E1,7.49E2,3.67E2,9.705E3,2.592E3,2.442E3,6.26E2,3E1,1E0,3.56E2,3.93E2,8.8E1,2.79E2,3.72E2,9.333E3,9.49E2,1.643E3,6.68E2,1.774E3,6.25E2,1E0,2.8E1,2E0,6.8E1,2.88E2,1.95E2,1.98E2,1.1E1,7.7E1,2.1E2,6.9E1,3.46E2,2.6E1,8.186E3,1.147E3,1E0,9.48E2,5.32E2,1.111E3,3.83E2,2.85E2,1.577E3,1.97E2,5.48E2,7.7E1,1E0,2.7E1,3E0,6.5E1,2.1E1,2.67E2,5.9E1,1.36E2,1.1E1,1.87E2,2E0,9E0,6.1E1,1.6E1,8.3E1,1.27E2,5.4E1,1.5E1,2.86E2,6E1,1.6E1,1E1,6.205E3,1.981E3,3E0,1.144E3,2E0,9.46E2,5.24E2,8E0,1.8E2,9.31E2,3E0,3.8E2,4.6E1,2.39E2,6.42E2,9.35E2,1.32E2,6.5E1,1.65E2,3.83E2,5.7E1,2E1,2.6E1,1E0],"tree_param":{"num_deleted":"0","num_feature":"10","num_nodes":"97","size_leaf_vector":"1"}},{"base_weights":[3.420519E-4,-2.7369726E-2,4.2840764E-2,-1.15538225E-1,-8.90287E-3,4.8548754E-2,-3.1313327E-1,7.146752E-1,-1.1787495E-1,3.2673985E-2,-3.803306E-2,1.01834565E-1,3.4220195E-3,-5.678669E-1,-2.4490988E-1,1.2141583E0,-2.3032984E-2,-8.519319E-2,-1.609408E-1,-7.9011045E-2,6.88049E-2,3.6904368E-1,-4.1231837E-2,6.896743E-1,8.642668E-2,4.478745E-2,-2.5539973E-1,8.633548E-2,-6.2503874E-1,-4.7396657E-1,-1.8741257E-1,4.3445426E-1,1.11917E-1,3.91099E-2,-4.9474742E-2,9.740415E-2,-1.1789307E-1,-7.723057E-2,-3.00181E-1,-4.7690295E-2,-1.4103258E-1,1.4516251E-1,2.0041859E-2,6.1928713E-1,-3.01489E-1,-7.7111706E-2,-5.3497492E-3,6.1344147E-1,5.668339E-1,1.7791359E-1,2.6928905E-2,1.3961123E-1,-1.1444543E-3,-2.0223895E-1,-9.916696E-1,-4.08277E-1,-2.5338173E-1,-5.047453E-1,-1.8428386E-3,-2.2590022E-1,3.4271175E-1,1.0076304E-2,2.7022764E-1,-8.54528E-2,-2.9428301E-2,1.6298555E-2,-3.675119E-2,-6.937124E-2,-1.2216017E-1,1.4194876E-1,-1.831682E-2,-1.4218925E-2,-8.345015E-2,1.3444486E-1,1.7539306E-2,5.0263036E-2,-7.172619E-3,2.8294092E-1,9.915948E-3,2.8974546E-2,-1.388515E-1,-3.7620615E-2,-1.3209928E-2,-4.6031387E-3,6.5681264E-2,1.5413028E-1,3.358417E-1,7.056572E-2,7.057181E-3,4.3539442E-2,-1.707924E-2,5.4040056E-2,-3.9266773E-2,2.9055849E-2,-9.153417E-3,1.0489526E-3,-9.397474E-2,4.850836E-2,-3.1022727E-1,-1.3807148E-1,-2.9694164E-2,-1.5874344E-1,-2.447287E-2,-1.0943557E-1,-5.1601663E-2,-3.0818824E-2,2.021747E-1],"categories":[],"categories_nodes":[],"categories_segments":[],"categories_sizes":[],"default_left":[0,0,0,0,0,0,0,0,0,0,0,0,0,0,0,0,0,0,0,0,0,0,0,0,0,0,0,0,0,0,0,0,0,0,0,0,0,0,0,0,0,0,0,0,0,0,0,0,0,0,0,0,0,0,0,0,0,0,0,0,0,0,0,0,0,0,0,0,0,0,0,0,0,0,0,0,0,0,0,0,0,0,0,0,0,0,0,0,0,0,0,0,0,0,0,0,0,0,0,0,0,0,0,0,0,0,0],"id":9,"left_children":[1,3,5,7,9,11,13,15,17,19,21,23,25,27,29,31,33,35,37,39,41,43,45,47,49,51,53,-1,55,57,59,-1,-1,-1,-1,61,63,65,67,69,71,73,75,77,79,81,83,85,-1,87,89,91,93,95,97,99,-1,101,-1,103,105,-1,-1,-1,-1,-1,-1,-1,-1,-1,-1,-1,-1,-1,-1,-1,-1,-1,-1,-1,-1,-1,-1,-1,-1,-1,-1,-1,-1,-1,-1,-1,-1,-1,-1,-1,-1,-1,-1,-1,-1,-1,-1,-1,-1,-1,-1],"loss_changes":[1.9448778E1,1.6274408E1,1.3259107E1,3.4423523E0,1.0012541E1,1.542766E1,1.65094E0,1.8703299E0,2.4169846E0,1.3749605E1,6.3449492E0,2.6587166E1,3.721574E1,1.2071795E0,1.0042944E0,5.025673E-2,8.6793646E-2,5.886862E0,8.648754E0,1.6114268E0,9.5812E0,6.5629716E0,6.2102194E0,5.7005844E0,1.5606501E1,1.3053404E1,1.8547838E1,0E0,6.0704136E-1,2.2728395E-1,1.4648387E0,0E0,0E0,0E0,0E0,7.6598353E0,2.7320595E0,2.782209E0,1.9643879E0,3.892577E0,3.5693874E0,2.6321014E1,1.0194938E1,5.284668E0,7.5121456E-1,3.847353E0,5.4121885E0,3.0563908E0,0E0,9.991997E0,1.7245981E1,1.0743723E1,5.8162723E0,1.0232845E1,1.7328758E0,1.4730263E-1,0E0,1.11711025E-1,0E0,4.1630507E-1,8.0689013E-1,0E0,0E0,0E0,0E0,0E0,0E0,0E0,0E0,0E0,0E0,0E0,0E0,0E0,0E0,0E0,0E0,0E0,0E0,0E0,0E0,0E0,0E0,0E0,0E0,0E0,0E0,0E0,0E0,0E0,0E0,0E0,0E0,0E0,0E0,0E0,0E0,0E0,0E0,0E0,0E0,0E0,0E0,0E0,0E0,0E0,0E0],"parents":[2147483647,0,0,1,1,2,2,3,3,4,4,5,5,6,6,7,7,8,8,9,9,10,10,11,11,12,12,13,13,14,14,15,15,16,16,17,17,18,18,19,19,20,20,21,21,22,22,23,23,24,24,25,25,26,26,28,28,29,29,30,30,35,35,36,36,37,37,38,38,39,39,40,40,41,41,42,42,43,43,44,44,45,45,46,46,47,47,49,49,50,50,51,51,52,52,53,53,54,54,55,55,57,57,59,59,60,60],"right_children":[2,4,6,8,10,12,14,16,18,20,22,24,26,28,30,32,34,36,38,40,42,44,46,48,50,52,54,-1,56,58,60,-1,-1,-1,-1,62,64,66,68,70,72,74,76,78,80,82,84,86,-1,88,90,92,94,96,98,100,-1,102,-1,104,106,-1,-1,-1,-1,-1,-1,-1,-1,-1,-1,-1,-1,-1,-1,-1,-1,-1,-1,-1,-1,-1,-1,-1,-1,-1,-1,-1,-1,-1,-1,-1,-1,-1,-1,-1,-1,-1,-1,-1,-1,-1,-1,-1,-1,-1,-1],"split_conditions":[5.013132E-2,-2.3409063E-1,1.5671229E0,-1.5140942E0,-4.752949E-2,-5.252405E-1,6.2605985E-2,4.0527365E-1,-1.3196374E-1,-7.6593506E-1,-1.1104188E0,1.7953955E-1,-1.3990411E-1,-1.5668013E0,-1.0848103E0,-6.5295655E-1,2.2782316E0,5.838354E-1,-9.584785E-1,7.934703E-1,-7.0783323E-1,-1.6947123E-1,-3.953203E-3,7.889371E-2,7.784964E-1,9.4486535E-1,1.0891964E0,8.633548E-2,3.3126488E-1,1.0271108E0,4.0329424E-1,4.3445426E-1,1.11917E-1,3.91099E-2,-4.9474742E-2,1.9734365E-1,-8.9671993E-1,8.5590994E-1,-3.84767E-1,-8.9510787E-1,-9.0915346E-1,5.9880936E-1,-1.3827395E0,7.746098E-3,-8.1039295E-2,-7.6354855E-1,2.5685177E0,1.6728853E-1,5.668339E-1,-6.7506015E-1,-9.2319906E-1,-4.5435646E-1,-1.4076961E0,-4.2761418E-1,-4.784218E-1,5.089018E-2,-2.5338173E-1,5.4017425E0,-1.8428386E-3,-9.044196E-2,-1.2426835E0,1.0076304E-2,2.7022764E-1,-8.54528E-2,-2.9428301E-2,1.6298555E-2,-3.675119E-2,-6.937124E-2,-1.2216017E-1,1.4194876E-1,-1.831682E-2,-1.4218925E-2,-8.345015E-2,1.3444486E-1,1.7539306E-2,5.0263036E-2,-7.172619E-3,2.8294092E-1,9.915948E-3,2.8974546E-2,-1.388515E-1,-3.7620615E-2,-1.3209928E-2,-4.6031387E-3,6.5681264E-2,1.5413028E-1,3.358417E-1,7.056572E-2,7.057181E-3,4.3539442E-2,-1.707924E-2,5.4040056E-2,-3.9266773E-2,2.9055849E-2,-9.153417E-3,1.0489526E-3,-9.397474E-2,4.850836E-2,-3.1022727E-1,-1.3807148E-1,-2.9694164E-2,-1.5874344E-1,-2.447287E-2,-1.0943557E-1,-5.1601663E-2,-3.0818824E-2,2.021747E-1],"split_indices":[2,3,7,9,5,6,3,0,6,1,4,7,7,0,4,0,0,7,7,7,6,2,4,5,7,6,0,0,0,9,8,0,0,0,0,8,4,6,0,6,6,7,7,3,3,0,9,3,0,6,6,7,7,0,6,5,0,2,0,5,1,0,0,0,0,0,0,0,0,0,0,0,0,0,0,0,0,0,0,0,0,0,0,0,0,0,0,0,0,0,0,0,0,0,0,0,0,0,0,0,0,0,0,0,0,0,0],"split_type":[0,0,0,0,0,0,0,0,0,0,0,0,0,0,0,0,0,0,0,0,0,0,0,0,0,0,0,0,0,0,0,0,0,0,0,0,0,0,0,0,0,0,0,0,0,0,0,0,0,0,0,0,0,0,0,0,0,0,0,0,0,0,0,0,0,0,0,0,0,0,0,0,0,0,0,0,0,0,0,0,0,0,0,0,0,0,0,0,0,0,0,0,0,0,0,0,0,0,0,0,0,0,0,0,0,0,0],"sum_hessian":[1.6512E4,9.995E3,6.517E3,1.73E3,8.265E3,6.415E3,1.02E2,4E0,1.726E3,3.405E3,4.86E3,2.941E3,3.474E3,2E1,8.2E1,2E0,2E0,9.83E2,7.43E2,8.32E2,2.573E3,3.7E1,4.823E3,7.4E1,2.867E3,2.996E3,4.78E2,1E0,1.9E1,1.5E1,6.7E1,1E0,1E0,1E0,1E0,1.49E2,8.34E2,4.65E2,2.78E2,5.54E2,2.78E2,1.002E3,1.571E3,2.7E1,1E1,2.411E3,2.412E3,7.1E1,3E0,1.129E3,1.738E3,9.77E2,2.019E3,4.47E2,3.1E1,1.1E1,8E0,1.4E1,1E0,6.3E1,4E0,1.39E2,1E1,8.7E1,7.47E2,1.19E2,3.46E2,1.71E2,1.07E2,1.3E1,5.41E2,1.66E2,1.12E2,2.22E2,7.8E2,3.6E2,1.211E3,1.7E1,1E1,3E0,7E0,9.79E2,1.432E3,2.31E3,1.02E2,6.1E1,1E1,8.23E2,3.06E2,7.21E2,1.017E3,8.5E2,1.27E2,4.65E2,1.554E3,1.57E2,2.9E2,1E0,3E1,9E0,2E0,1.3E1,1E0,1.6E1,4.7E1,2E0,2E0],"tree_param":{"num_deleted":"0","num_feature":"10","num_nodes":"107","size_leaf_vector":"1"}},{"base_weights":[3.1423077E-4,-1.1363313E-2,6.329508E-2,-6.4325675E-2,1.5685023E-3,7.96251E-2,-8.941515E-2,4.8041368E-1,-6.770913E-2,-8.947579E-2,1.1425097E-2,3.3594528E-1,6.4230695E-2,3.529982E-2,-1.5857622E-1,4.820418E-1,2.2310765E-1,-1.6351748E-2,-8.617318E-2,-9.666851E-2,6.998817E-1,1.889685E-2,-9.282054E-2,2.6468962E-1,1.1787955E0,7.3497675E-2,-1.9609003E-1,2.1830451E-1,-1.3677478E-1,1.08716145E-1,-1.9726107E-1,-2.5682545E-1,3.1669933E-1,7.536319E-2,-6.44045E-2,-4.7610354E-2,-2.0878078E-1,1.1076328E-1,-1.13513865E-1,4.808844E-1,2.7374664E-1,1.9860853E-1,7.5069675E-3,-2.5044277E-1,-5.1924054E-2,-1.419977E-1,3.182274E-1,5.268191E-1,2.503144E-1,9.848623E-2,-6.7985994E-3,-7.2224975E-2,-5.170592E-1,3.030391E-1,-3.2907654E-2,-4.8673183E-2,-3.4096617E-1,3.3555025E-1,-1.7435637E-1,-2.6243806E-1,-6.132329E-2,-1.00620106E-1,-1.4951349E-2,1.3770156E-1,-8.373213E-4,6.77064E-2,3.7753088E-3,1.4522601E-2,-3.477805E-2,1.6535599E-2,-2.3398533E-2,-4.670595E-2,-9.9994786E-2,9.632681E-2,-1.8245978E-2,1.6687844E-2,-3.9810672E-2,1.4762555E-1,-2.0283943E-2,3.1323537E-2,1.3914835E-1,5.478646E-3,-4.5723144E-2,-3.498617E-2,-1.3767877E-1,-3.8149317E-3,-7.255726E-2,-1.1804561E-1,2.0814408E-2,8.392948E-2,2.5161427E-1,-3.0923678E-2,1.560809E-1,6.0454965E-2,2.3524143E-2,-3.5066924E-3,3.6942607E-1,-3.149215E-2,1.1392613E-1,-2.0510149E-1,-1.0858151E-1,1.2944712E-1,1.2687561E-2,2.074649E-2,-7.629649E-2,1.4694909E-2,-5.7504255E-2,-1.2102921E-1,-4.4353154E-2,1.838842E-1,1.4953668E-2,9.312377E-2,-1.0030506E-1,-2.6418973E-2,-1.088067E-1,-1.0977157E-1,3.3785554E-4],"categories":[],"categories_nodes":[],"categories_segments":[],"categories_sizes":[],"default_left":[0,0,0,0,0,0,0,0,0,0,0,0,0,0,0,0,0,0,0,0,0,0,0,0,0,0,0,0,0,0,0,0,0,0,0,0,0,0,0,0,0,0,0,0,0,0,0,0,0,0,0,0,0,0,0,0,0,0,0,0,0,0,0,0,0,0,0,0,0,0,0,0,0,0,0,0,0,0,0,0,0,0,0,0,0,0,0,0,0,0,0,0,0,0,0,0,0,0,0,0,0,0,0,0,0,0,0,0,0,0,0,0,0,0,0,0,0],"id":10,"left_children":[1,3,5,7,9,11,13,15,17,19,21,23,25,27,29,-1,31,33,35,37,39,41,43,45,47,49,51,53,55,57,59,61,63,65,67,69,71,73,75,-1,77,79,81,83,85,87,89,-1,91,93,95,97,99,101,103,105,107,109,111,113,115,-1,-1,-1,-1,-1,-1,-1,-1,-1,-1,-1,-1,-1,-1,-1,-1,-1,-1,-1,-1,-1,-1,-1,-1,-1,-1,-1,-1,-1,-1,-1,-1,-1,-1,-1,-1,-1,-1,-1,-1,-1,-1,-1,-1,-1,-1,-1,-1,-1,-1,-1,-1,-1,-1,-1,-1],"loss_changes":[1.2145397E1,9.541436E0,6.4485044E0,5.0715733E0,1.0049958E1,9.1881485E0,2.1619525E0,4.5685763E0,2.5759735E0,6.2789793E0,7.8725147E0,7.6156206E0,5.328903E0,2.8639998E0,1.6862121E0,0E0,7.5510246E-1,3.1780055E0,9.441522E0,3.8038492E0,3.40948E0,1.930073E1,4.3446245E0,2.7232838E0,4.9202576E0,4.2704754E0,2.9841769E0,9.4657207E-1,8.2891476E-1,1.4069259E0,1.2331681E0,3.2076463E-2,5.923308E-1,2.3375893E0,2.7548761E0,4.755063E0,3.108694E0,2.9787793E0,3.2658834E0,0E0,6.295272E-1,1.39918995E1,1.52569475E1,3.8245955E0,4.003324E0,8.2468903E-1,1.9474516E0,0E0,5.306307E-1,3.3406706E0,3.0784025E0,8.6876446E-1,2.9529905E-1,1.0870309E0,2.887647E-1,4.8421904E-1,1.09241486E-1,9.20491E-1,8.793868E-1,1.6287789E0,8.9439833E-1,0E0,0E0,0E0,0E0,0E0,0E0,0E0,0E0,0E0,0E0,0E0,0E0,0E0,0E0,0E0,0E0,0E0,0E0,0E0,0E0,0E0,0E0,0E0,0E0,0E0,0E0,0E0,0E0,0E0,0E0,0E0,0E0,0E0,0E0,0E0,0E0,0E0,0E0,0E0,0E0,0E0,0E0,0E0,0E0,0E0,0E0,0E0,0E0,0E0,0E0,0E0,0E0,0E0,0E0,0E0,0E0],"parents":[2147483647,0,0,1,1,2,2,3,3,4,4,5,5,6,6,7,7,8,8,9,9,10,10,11,11,12,12,13,13,14,14,16,16,17,17,18,18,19,19,20,20,21,21,22,22,23,23,24,24,25,25,26,26,27,27,28,28,29,29,30,30,31,31,32,32,33,33,34,34,35,35,36,36,37,37,38,38,40,40,41,41,42,42,43,43,44,44,45,45,46,46,48,48,49,49,50,50,51,51,52,52,53,53,54,54,55,55,56,56,57,57,58,58,59,59,60,60],"right_children":[2,4,6,8,10,12,14,16,18,20,22,24,26,28,30,-1,32,34,36,38,40,42,44,46,48,50,52,54,56,58,60,62,64,66,68,70,72,74,76,-1,78,80,82,84,86,88,90,-1,92,94,96,98,100,102,104,106,108,110,112,114,116,-1,-1,-1,-1,-1,-1,-1,-1,-1,-1,-1,-1,-1,-1,-1,-1,-1,-1,-1,-1,-1,-1,-1,-1,-1,-1,-1,-1,-1,-1,-1,-1,-1,-1,-1,-1,-1,-1,-1,-1,-1,-1,-1,-1,-1,-1,-1,-1,-1,-1,-1,-1,-1,-1,-1,-1],"split_conditions":[4.373404E-1,-2.1903603E-1,1.2127402E0,-1.2924255E0,-1.1068523E0,-9.7469956E-1,-1.1632254E0,-6.5295655E-1,-1.0433307E0,3.2538134E-1,1.2077488E0,5.7204854E-1,1.0829661E0,-9.2319906E-1,-9.580439E-2,4.820418E-1,-1.8783481E0,9.0272856E-1,-1.3196374E-1,-9.797269E-1,-1.403025E-1,-9.0915346E-1,-7.324198E-2,-1.8783481E0,1.0668881E0,1.0900033E0,9.5039064E-1,1.2914077E-2,-2.1997584E-2,1.3186677E0,-2.1588595E-1,2.083419E0,-1.3487241E0,-1.2330004E0,-1.42267E0,6.1378324E-1,2.2786886E-3,1.2604119E-1,-8.763804E-1,4.808844E-1,1.6728853E-1,2.8645715E-2,8.8331383E-1,-5.935285E-1,1.4473315E0,3.369053E-1,1.249345E-1,5.268191E-1,-7.536653E-1,5.944539E-1,5.1782486E1,8.3037645E-1,-1.2924255E0,1.3375229E0,-1.4810578E0,-2.1588595E-1,-1.5605159E0,-6.6006166E-1,-3.9949515E-1,-1.1136631E-1,-1.8143085E-1,-1.00620106E-1,-1.4951349E-2,1.3770156E-1,-8.373213E-4,6.77064E-2,3.7753088E-3,1.4522601E-2,-3.477805E-2,1.6535599E-2,-2.3398533E-2,-4.670595E-2,-9.9994786E-2,9.632681E-2,-1.8245978E-2,1.6687844E-2,-3.9810672E-2,1.4762555E-1,-2.0283943E-2,3.1323537E-2,1.3914835E-1,5.478646E-3,-4.5723144E-2,-3.498617E-2,-1.3767877E-1,-3.8149317E-3,-7.255726E-2,-1.1804561E-1,2.0814408E-2,8.392948E-2,2.5161427E-1,-3.0923678E-2,1.560809E-1,6.0454965E-2,2.3524143E-2,-3.5066924E-3,3.6942607E-1,-3.149215E-2,1.1392613E-1,-2.0510149E-1,-1.0858151E-1,1.2944712E-1,1.2687561E-2,2.074649E-2,-7.629649E-2,1.4694909E-2,-5.7504255E-2,-1.2102921E-1,-4.4353154E-2,1.838842E-1,1.4953668E-2,9.312377E-2,-1.0030506E-1,-2.6418973E-2,-1.088067E-1,-1.0977157E-1,3.3785554E-4],"split_indices":[2,3,7,9,0,6,1,0,7,5,7,3,7,6,5,0,1,6,6,4,8,6,5,1,3,6,0,5,5,3,4,0,9,7,7,7,0,3,6,0,3,1,7,0,7,4,8,0,4,0,3,0,9,7,1,4,1,4,9,0,3,0,0,0,0,0,0,0,0,0,0,0,0,0,0,0,0,0,0,0,0,0,0,0,0,0,0,0,0,0,0,0,0,0,0,0,0,0,0,0,0,0,0,0,0,0,0,0,0,0,0,0,0,0,0,0,0],"split_type":[0,0,0,0,0,0,0,0,0,0,0,0,0,0,0,0,0,0,0,0,0,0,0,0,0,0,0,0,0,0,0,0,0,0,0,0,0,0,0,0,0,0,0,0,0,0,0,0,0,0,0,0,0,0,0,0,0,0,0,0,0,0,0,0,0,0,0,0,0,0,0,0,0,0,0,0,0,0,0,0,0,0,0,0,0,0,0,0,0,0,0,0,0,0,0,0,0,0,0,0,0,0,0,0,0,0,0,0,0,0,0,0,0,0,0,0,0],"sum_hessian":[1.6512E4,1.393E4,2.582E3,2.733E3,1.1197E4,2.333E3,2.49E2,1.6E1,2.717E3,1.093E3,1.0104E4,1.31E2,2.202E3,8.9E1,1.6E2,2E0,1.4E1,7.19E2,1.998E3,1.084E3,9E0,9.429E3,6.75E2,1.22E2,9E0,2.127E3,7.5E1,4.3E1,4.6E1,2E1,1.4E2,2E0,1.2E1,2.47E2,4.72E2,1.521E3,4.77E2,8.1E1,1.003E3,2E0,7E0,5.61E2,8.868E3,1.38E2,5.37E2,1.4E1,1.08E2,5E0,4E0,1.622E3,5.05E2,5.5E1,2E1,3.2E1,1.1E1,3.3E1,1.3E1,1.1E1,9E0,9.4E1,4.6E1,1E0,1E0,8E0,4E0,7.2E1,1.75E2,1.48E2,3.24E2,3.47E2,1.174E3,3.36E2,1.41E2,3.6E1,4.5E1,1.02E2,9.01E2,4E0,3E0,4.15E2,1.46E2,8.31E3,5.58E2,8.5E1,5.3E1,4.46E2,9.1E1,6E0,8E0,1.02E2,6E0,2E0,2E0,2.63E2,1.359E3,5.04E2,1E0,5.2E1,3E0,8E0,1.2E1,2.1E1,1.1E1,8E0,3E0,2E1,1.3E1,9E0,4E0,5E0,6E0,2E0,7E0,3.5E1,5.9E1,7E0,3.9E1],"tree_param":{"num_deleted":"0","num_feature":"10","num_nodes":"117","size_leaf_vector":"1"}},{"base_weights":[3.3380435E-4,2.24444E-2,-2.5086801E-2,1.1508296E-1,-9.924502E-3,9.771923E-3,-1.6947472E-1,2.0147613E-1,1.8851321E-2,-4.148894E-1,-6.2403386E-3,1.0169908E-1,-2.6261088E-2,-1.354431E-1,-3.746308E-1,8.984481E-2,4.310273E-1,3.0774015E-1,-4.061841E-2,1.6494797E-1,-5.225591E-1,4.887618E-2,-3.575346E-2,4.2942858E-1,8.46385E-2,5.9143987E-2,-5.967225E-2,-1.6732296E-1,3.9054777E-2,-6.440859E-1,-3.1770983E-1,3.2722464E-1,-7.252619E-2,6.642353E-1,2.4546519E-1,-2.3697315E-1,4.23216E-1,-6.477456E-2,2.8653437E-1,-2.0010912E-1,4.416709E-1,-6.552627E-1,-4.7725663E-2,1.3310772E-1,-6.0349762E-2,-8.564382E-2,2.0187745E-2,4.3607575E-1,3.7489775E-1,2.7338347E-1,4.8374455E-2,1.151783E-1,-1.0220283E-1,-5.4301065E-3,-9.537134E-2,-3.3960518E-1,-1.4080921E-1,5.2989474E-3,5.6464154E-1,-8.6170065E-1,-3.7859887E-1,-2.692767E-1,-7.3057586E-1,2.0129374E-1,7.589818E-2,1.0640214E-1,-9.426996E-2,2.326138E-1,2.453347E-2,1.0818732E-1,2.0195937E-2,-1.0842667E-1,-1.2678638E-2,1.8002433E-1,7.225638E-2,-3.8123265E-2,1.2278489E-3,1.9841368E-1,2.7686955E-2,-9.421899E-2,3.8356125E-2,1.5188849E-1,1.7782582E-2,6.863643E-2,-2.1276982E-1,-7.72537E-2,2.0024155E-1,7.047053E-2,1.2027626E-2,-1.1742351E-2,-6.918969E-2,-6.2040854E-2,-1.8257007E-2,4.0745948E-2,-3.3003695E-2,-1.9116624E-1,1.18503496E-1,1.2507643E-1,3.898409E-2,2.2211658E-2,-4.6632346E-2,6.6562197E-3,5.0422955E-2,-1.4948501E-2,-5.2994672E-2,9.4289385E-2,-3.8673615E-3,5.084153E-2,-3.212333E-2,-7.183737E-2,-1.7560627E-1,-4.026524E-2,-1.7044812E-1,1.0612573E-1,-4.879339E-3,-3.9167725E-2,2.432645E-1,-1.1683141E-1,-3.1491342E-1,-5.1590383E-2,-1.2760587E-1,-9.529355E-2,5.5767633E-2,-3.1544283E-2,-2.5459552E-1],"categories":[],"categories_nodes":[],"categories_segments":[],"categories_sizes":[],"default_left":[0,0,0,0,0,0,0,0,0,0,0,0,0,0,0,0,0,0,0,0,0,0,0,0,0,0,0,0,0,0,0,0,0,0,0,0,0,0,0,0,0,0,0,0,0,0,0,0,0,0,0,0,0,0,0,0,0,0,0,0,0,0,0,0,0,0,0,0,0,0,0,0,0,0,0,0,0,0,0,0,0,0,0,0,0,0,0,0,0,0,0,0,0,0,0,0,0,0,0,0,0,0,0,0,0,0,0,0,0,0,0,0,0,0,0,0,0,0,0,0,0,0,0,0,0],"id":11,"left_children":[1,3,5,7,9,11,13,15,17,19,21,23,25,27,29,31,33,35,37,39,41,43,45,47,49,51,53,55,57,59,61,63,65,67,69,71,73,75,77,79,81,83,85,87,89,91,93,-1,95,97,99,101,103,105,107,109,111,113,115,117,119,121,123,-1,-1,-1,-1,-1,-1,-1,-1,-1,-1,-1,-1,-1,-1,-1,-1,-1,-1,-1,-1,-1,-1,-1,-1,-1,-1,-1,-1,-1,-1,-1,-1,-1,-1,-1,-1,-1,-1,-1,-1,-1,-1,-1,-1,-1,-1,-1,-1,-1,-1,-1,-1,-1,-1,-1,-1,-1,-1,-1,-1,-1,-1],"loss_changes":[9.281938E0,2.648485E1,3.866654E1,1.9009762E1,9.763761E0,2.050319E1,1.0380058E1,3.083952E1,1.8618591E1,3.769619E0,1.0555521E1,9.709209E0,1.2692968E1,7.1438217E0,3.0469532E0,3.1321136E1,1.688713E1,1.1737015E1,7.123134E0,1.0985792E0,3.1193342E0,2.0828241E1,1.1796185E1,4.257992E0,1.1335216E1,1.1322011E1,6.190136E0,4.9082947E0,3.5275898E0,1.753622E0,3.3426323E0,8.2509E0,4.9984688E1,1.1200752E1,4.509556E0,7.843683E-1,4.7902336E0,3.5960796E0,4.453274E0,2.2701785E-1,1.1826098E-1,2.0230389E0,1.972349E0,1.2091242E1,3.551866E0,6.6965294E0,3.002016E1,0E0,1.9413939E0,5.442972E0,7.2927895E0,4.5660715E0,1.2505994E0,3.0336647E0,5.9956512E0,3.4038277E0,2.577345E0,1.4183564E0,2.1601026E0,1.2782202E0,1.0074782E-1,3.5815773E0,1.2400293E0,0E0,0E0,0E0,0E0,0E0,0E0,0E0,0E0,0E0,0E0,0E0,0E0,0E0,0E0,0E0,0E0,0E0,0E0,0E0,0E0,0E0,0E0,0E0,0E0,0E0,0E0,0E0,0E0,0E0,0E0,0E0,0E0,0E0,0E0,0E0,0E0,0E0,0E0,0E0,0E0,0E0,0E0,0E0,0E0,0E0,0E0,0E0,0E0,0E0,0E0,0E0,0E0,0E0,0E0,0E0,0E0,0E0,0E0,0E0,0E0,0E0,0E0],"parents":[2147483647,0,0,1,1,2,2,3,3,4,4,5,5,6,6,7,7,8,8,9,9,10,10,11,11,12,12,13,13,14,14,15,15,16,16,17,17,18,18,19,19,20,20,21,21,22,22,23,23,24,24,25,25,26,26,27,27,28,28,29,29,30,30,31,31,32,32,33,33,34,34,35,35,36,36,37,37,38,38,39,39,40,40,41,41,42,42,43,43,44,44,45,45,46,46,48,48,49,49,50,50,51,51,52,52,53,53,54,54,55,55,56,56,57,57,58,58,59,59,60,60,61,61,62,62],"right_children":[2,4,6,8,10,12,14,16,18,20,22,24,26,28,30,32,34,36,38,40,42,44,46,48,50,52,54,56,58,60,62,64,66,68,70,72,74,76,78,80,82,84,86,88,90,92,94,-1,96,98,100,102,104,106,108,110,112,114,116,118,120,122,124,-1,-1,-1,-1,-1,-1,-1,-1,-1,-1,-1,-1,-1,-1,-1,-1,-1,-1,-1,-1,-1,-1,-1,-1,-1,-1,-1,-1,-1,-1,-1,-1,-1,-1,-1,-1,-1,-1,-1,-1,-1,-1,-1,-1,-1,-1,-1,-1,-1,-1,-1,-1,-1,-1,-1,-1,-1,-1,-1,-1,-1,-1],"split_conditions":[-4.4564873E-1,6.337485E-1,-5.0926083E-1,-6.8910575E-1,-1.504904E-1,9.261379E-1,1.5856029E-1,-7.406063E-1,9.967863E-2,-1.0043093E0,-8.716985E-1,-5.5533643E-3,-1.4076961E0,8.2313687E-1,-5.010456E-2,5.9381807E-1,-7.2656065E-1,-4.244086E-1,3.4785464E-2,-7.1127874E-1,-3.4665725E-1,1.2127402E0,-7.546519E-1,-1.2661343E0,-1.2829134E0,1.4645525E0,-3.6864468E-1,-6.635551E-2,2.790707E0,1.1233094E-1,1.4699783E0,-3.84767E-1,-8.108343E-1,2.1735876E0,4.2996076E-1,-2.3129096E-2,-7.587507E-2,-8.64738E-2,-3.6864468E-1,-6.565744E-1,-7.38882E-2,-1.344567E0,1.8756187E-1,-2.1588595E-1,1.6968969E0,6.6868764E-1,7.8348774E-1,4.3607575E-1,-1.4060381E-1,6.590931E-1,-8.237132E-1,1.0010477E0,-1.797018E0,-1.0848103E0,-1.2066376E0,-5.146771E-1,1.5006559E0,-6.5243876E-1,-1.3221416E0,-7.6593506E-1,-8.914809E-2,8.886761E-1,-1.3990411E-1,2.0129374E-1,7.589818E-2,1.0640214E-1,-9.426996E-2,2.326138E-1,2.453347E-2,1.0818732E-1,2.0195937E-2,-1.0842667E-1,-1.2678638E-2,1.8002433E-1,7.225638E-2,-3.8123265E-2,1.2278489E-3,1.9841368E-1,2.7686955E-2,-9.421899E-2,3.8356125E-2,1.5188849E-1,1.7782582E-2,6.863643E-2,-2.1276982E-1,-7.72537E-2,2.0024155E-1,7.047053E-2,1.2027626E-2,-1.1742351E-2,-6.918969E-2,-6.2040854E-2,-1.8257007E-2,4.0745948E-2,-3.3003695E-2,-1.9116624E-1,1.18503496E-1,1.2507643E-1,3.898409E-2,2.2211658E-2,-4.6632346E-2,6.6562197E-3,5.0422955E-2,-1.4948501E-2,-5.2994672E-2,9.4289385E-2,-3.8673615E-3,5.084153E-2,-3.212333E-2,-7.183737E-2,-1.7560627E-1,-4.026524E-2,-1.7044812E-1,1.0612573E-1,-4.879339E-3,-3.9167725E-2,2.432645E-1,-1.1683141E-1,-3.1491342E-1,-5.1590383E-2,-1.2760587E-1,-9.529355E-2,5.5767633E-2,-3.1544283E-2,-2.5459552E-1],"split_indices":[6,7,7,6,5,6,0,6,7,1,6,6,7,6,5,7,6,7,8,4,0,7,6,0,7,6,1,5,8,8,0,0,6,0,0,3,9,2,1,2,0,6,1,4,7,7,7,0,5,0,7,6,7,4,9,0,9,9,1,1,5,2,7,0,0,0,0,0,0,0,0,0,0,0,0,0,0,0,0,0,0,0,0,0,0,0,0,0,0,0,0,0,0,0,0,0,0,0,0,0,0,0,0,0,0,0,0,0,0,0,0,0,0,0,0,0,0,0,0,0,0,0,0,0,0],"split_type":[0,0,0,0,0,0,0,0,0,0,0,0,0,0,0,0,0,0,0,0,0,0,0,0,0,0,0,0,0,0,0,0,0,0,0,0,0,0,0,0,0,0,0,0,0,0,0,0,0,0,0,0,0,0,0,0,0,0,0,0,0,0,0,0,0,0,0,0,0,0,0,0,0,0,0,0,0,0,0,0,0,0,0,0,0,0,0,0,0,0,0,0,0,0,0,0,0,0,0,0,0,0,0,0,0,0,0,0,0,0,0,0,0,0,0,0,0,0,0,0,0,0,0,0,0],"sum_hessian":[1.6512E4,8.831E3,7.681E3,2.286E3,6.545E3,6.188E3,1.493E3,1.204E3,1.082E3,5.8E1,6.487E3,1.742E3,4.446E3,1.282E3,2.11E2,8.11E2,3.93E2,1.84E2,8.98E2,9E0,4.9E1,2.262E3,4.225E3,8.5E1,1.657E3,1.25E3,3.196E3,1.084E3,1.98E2,3.5E1,1.76E2,3.29E2,4.82E2,1.73E2,2.2E2,3.2E1,1.52E2,8.37E2,6.1E1,4E0,5E0,3.8E1,1.1E1,1.277E3,9.85E2,2.233E3,1.992E3,3E0,8.2E1,2.66E2,1.391E3,9.28E2,3.22E2,1.269E3,1.927E3,1.43E2,9.41E2,1.87E2,1.1E1,1.8E1,1.7E1,1.59E2,1.7E1,5.7E1,2.72E2,1.74E2,3.08E2,1.45E2,2.8E1,1.33E2,8.7E1,1.9E1,1.3E1,7.6E1,7.6E1,4.39E2,3.98E2,2E1,4.1E1,3E0,1E0,4E0,1E0,2E0,3.6E1,9E0,2E0,6.09E2,6.68E2,8.77E2,1.08E2,3.78E2,1.855E3,1.055E3,9.37E2,1E0,8.1E1,1.32E2,1.34E2,1.236E3,1.55E2,3.37E2,5.91E2,1.9E2,1.32E2,2.8E1,1.241E3,8.1E1,1.846E3,1.03E2,4E1,9.28E2,1.3E1,1E1,1.77E2,3E0,8E0,6E0,1.2E1,4E0,1.3E1,1.44E2,1.5E1,3E0,1.4E1],"tree_param":{"num_deleted":"0","num_feature":"10","num_nodes":"125","size_leaf_vector":"1"}},{"base_weights":[2.656898E-4,-2.4761742E-2,1.5540817E-2,-1.5667217E-2,-7.7388436E-2,8.110109E-2,7.982158E-3,1.7409988E-1,-2.0587066E-2,8.609932E-1,-8.447499E-2,5.4183E-1,5.4863393E-2,1.6357506E-2,-1.15779825E-1,3.944404E-1,5.1935714E-2,1.1852238E-2,-4.1845597E-2,3.4847975E-2,5.852713E-1,-2.1095255E-1,-6.2532604E-2,8.5038406E-1,2.741977E-1,1.6926284E-1,1.1042332E-2,4.5307208E-2,-7.323735E-3,-6.054288E-2,-1.9674031E-1,5.753121E-1,-3.2598898E-3,3.988169E-1,-8.082596E-3,2.3729067E-1,4.158324E-3,-3.8290462E-1,-3.7660822E-2,1.7488472E-1,-3.504143E-2,-9.45843E-2,-4.494736E-1,-4.010442E-2,-1.3220301E-1,-3.0630752E-1,1.1403729E0,-2.4986062E-2,3.442011E-1,3.2410014E-1,-1.0529462E-1,-2.5715845E-2,1.2125619E-1,-2.2016197E-2,9.558972E-2,1.5837857E-2,-9.8395884E-2,1.2443992E-2,-8.308938E-2,-1.2395933E-1,-4.340021E-1,5.6067068E-2,2.4553256E-1,3.1331214E-1,-6.825599E-2,8.115272E-2,1.8596469E-1,-3.1538125E-2,4.5846436E-2,2.4697395E-1,1.6776353E-2,1.6156547E-2,-6.1075254E-3,1.5929674E-1,-1.3452786E-1,-8.604645E-3,-4.0760107E-2,6.9314614E-2,9.383512E-3,2.318398E-2,-7.823382E-2,-8.991718E-2,-1.947382E-1,4.63938E-3,-2.7472205E-2,-5.833569E-2,-1.5400634E-2,-1.4503363E-1,9.593654E-3,-2.441919E-2,3.6165938E-1,-4.996739E-2,1.9486286E-2,1.2471397E-1,4.887967E-2,5.782848E-2,1.942138E-1,-5.445276E-2,1.4252676E-1,-4.9105603E-2,-6.077245E-4,5.5098396E-2,-5.3102165E-2,3.793605E-3,-2.9496836E-2,1.3210044E-2,5.3907294E-2,6.2463187E-2,-6.345856E-5,-1.84896E-2,-5.8719795E-2,9.314486E-3,-6.9445744E-2,-2.8235262E-2,3.2316905E-2,-2.8945467E-2,-8.7791845E-2,-2.1901038E-1,-7.7245206E-2],"categories":[],"categories_nodes":[],"categories_segments":[],"categories_sizes":[],"default_left":[0,0,0,0,0,0,0,0,0,0,0,0,0,0,0,0,0,0,0,0,0,0,0,0,0,0,0,0,0,0,0,0,0,0,0,0,0,0,0,0,0,0,0,0,0,0,0,0,0,0,0,0,0,0,0,0,0,0,0,0,0,0,0,0,0,0,0,0,0,0,0,0,0,0,0,0,0,0,0,0,0,0,0,0,0,0,0,0,0,0,0,0,0,0,0,0,0,0,0,0,0,0,0,0,0,0,0,0,0,0,0,0,0,0,0,0,0,0,0],"id":12,"left_children":[1,3,5,7,9,11,13,15,17,19,21,23,25,27,29,31,33,35,37,39,-1,41,43,45,47,49,51,53,55,57,59,61,63,65,67,69,71,73,75,77,-1,79,81,83,85,87,89,91,93,95,97,99,101,103,105,107,109,111,113,115,117,-1,-1,-1,-1,-1,-1,-1,-1,-1,-1,-1,-1,-1,-1,-1,-1,-1,-1,-1,-1,-1,-1,-1,-1,-1,-1,-1,-1,-1,-1,-1,-1,-1,-1,-1,-1,-1,-1,-1,-1,-1,-1,-1,-1,-1,-1,-1,-1,-1,-1,-1,-1,-1,-1,-1,-1,-1,-1],"loss_changes":[6.3132586E0,2.9944367E0,5.081195E0,4.9872756E0,6.2039337E0,1.2784048E1,9.534006E0,3.6134067E0,3.5892365E0,6.2349887E0,2.5289097E0,4.473831E0,5.031288E0,5.9057884E0,2.5952706E0,3.4546447E0,1.8353152E0,3.573826E0,4.4728675E0,1.2661214E-1,0E0,3.7045836E0,1.2166362E0,9.070421E0,6.788044E-1,1.1852389E1,2.9483843E0,1.31231E1,9.997891E0,5.737021E-1,4.0214844E0,2.96346E0,3.9966946E0,2.0105362E-1,1.2027942E0,7.1806293E0,2.4305944E0,2.5135398E0,2.7357364E0,1.6969688E-2,0E0,2.6479485E0,1.1209564E0,1.6974643E0,9.4646764E-1,3.7499994E-1,1.769907E0,9.9949814E-2,2.6930308E-1,7.4329147E0,4.553837E0,1.7842753E0,3.4201052E0,4.386494E0,9.613548E0,1.1667574E1,3.4268541E0,3.8385296E-1,5.69885E-1,8.152242E-1,2.686057E0,0E0,0E0,0E0,0E0,0E0,0E0,0E0,0E0,0E0,0E0,0E0,0E0,0E0,0E0,0E0,0E0,0E0,0E0,0E0,0E0,0E0,0E0,0E0,0E0,0E0,0E0,0E0,0E0,0E0,0E0,0E0,0E0,0E0,0E0,0E0,0E0,0E0,0E0,0E0,0E0,0E0,0E0,0E0,0E0,0E0,0E0,0E0,0E0,0E0,0E0,0E0,0E0,0E0,0E0,0E0,0E0,0E0,0E0],"parents":[2147483647,0,0,1,1,2,2,3,3,4,4,5,5,6,6,7,7,8,8,9,9,10,10,11,11,12,12,13,13,14,14,15,15,16,16,17,17,18,18,19,19,21,21,22,22,23,23,24,24,25,25,26,26,27,27,28,28,29,29,30,30,31,31,32,32,33,33,34,34,35,35,36,36,37,37,38,38,39,39,41,41,42,42,43,43,44,44,45,45,46,46,47,47,48,48,49,49,50,50,51,51,52,52,53,53,54,54,55,55,56,56,57,57,58,58,59,59,60,60],"right_children":[2,4,6,8,10,12,14,16,18,20,22,24,26,28,30,32,34,36,38,40,-1,42,44,46,48,50,52,54,56,58,60,62,64,66,68,70,72,74,76,78,-1,80,82,84,86,88,90,92,94,96,98,100,102,104,106,108,110,112,114,116,118,-1,-1,-1,-1,-1,-1,-1,-1,-1,-1,-1,-1,-1,-1,-1,-1,-1,-1,-1,-1,-1,-1,-1,-1,-1,-1,-1,-1,-1,-1,-1,-1,-1,-1,-1,-1,-1,-1,-1,-1,-1,-1,-1,-1,-1,-1,-1,-1,-1,-1,-1,-1,-1,-1,-1,-1,-1,-1],"split_conditions":[-1.4180535E-1,9.082704E-1,-9.3256277E-1,-8.9510787E-1,-1.2225665E0,8.932965E-1,1.0829661E0,6.206148E-1,-5.805583E-1,-4.4705853E-2,-6.7783765E-2,7.672637E-1,1.162827E0,-3.6137515E-1,-4.4810274E-1,-1.8731827E-1,-9.3256277E-1,-9.947388E-1,-5.9965295E-1,-1.5668013E0,5.852713E-1,-1.166656E0,1.2576619E0,-3.723004E-1,-1.0116268E-1,-1.0027908E0,-1.2275203E0,-7.640156E-1,-5.0926083E-1,1.1578357E0,-3.6618587E-1,-9.172148E-2,-1.5605159E0,-1.3027044E-1,3.0048913E-3,-2.7033246E-1,-6.563327E-1,-6.327433E-2,5.430794E-1,-1.3027044E-1,-3.504143E-2,-4.207186E-1,-3.0828428E-1,-9.4660836E-1,-3.953203E-3,-2.891866E-1,-9.0908265E-1,-7.6593506E-1,2.5668447E0,5.1555496E-2,3.1535995E-1,-1.0550307E-1,1.6968969E0,5.848523E-1,-8.64738E-2,6.5927154E-1,-3.5960615E-1,3.4785464E-2,5.390809E0,9.266275E-1,-4.028232E-2,5.6067068E-2,2.4553256E-1,3.1331214E-1,-6.825599E-2,8.115272E-2,1.8596469E-1,-3.1538125E-2,4.5846436E-2,2.4697395E-1,1.6776353E-2,1.6156547E-2,-6.1075254E-3,1.5929674E-1,-1.3452786E-1,-8.604645E-3,-4.0760107E-2,6.9314614E-2,9.383512E-3,2.318398E-2,-7.823382E-2,-8.991718E-2,-1.947382E-1,4.63938E-3,-2.7472205E-2,-5.833569E-2,-1.5400634E-2,-1.4503363E-1,9.593654E-3,-2.441919E-2,3.6165938E-1,-4.996739E-2,1.9486286E-2,1.2471397E-1,4.887967E-2,5.782848E-2,1.942138E-1,-5.445276E-2,1.4252676E-1,-4.9105603E-2,-6.077245E-4,5.5098396E-2,-5.3102165E-2,3.793605E-3,-2.9496836E-2,1.3210044E-2,5.3907294E-2,6.2463187E-2,-6.345856E-5,-1.84896E-2,-5.8719795E-2,9.314486E-3,-6.9445744E-2,-2.8235262E-2,3.2316905E-2,-2.8945467E-2,-8.7791845E-2,-2.1901038E-1,-7.7245206E-2],"split_indices":[3,7,6,6,4,7,7,0,9,5,5,0,7,6,1,3,6,4,3,0,0,6,7,2,5,6,6,6,7,7,0,8,1,1,5,0,6,8,0,1,0,0,0,6,4,1,4,1,0,3,3,5,7,1,2,6,0,8,3,9,5,0,0,0,0,0,0,0,0,0,0,0,0,0,0,0,0,0,0,0,0,0,0,0,0,0,0,0,0,0,0,0,0,0,0,0,0,0,0,0,0,0,0,0,0,0,0,0,0,0,0,0,0,0,0,0,0,0,0],"split_type":[0,0,0,0,0,0,0,0,0,0,0,0,0,0,0,0,0,0,0,0,0,0,0,0,0,0,0,0,0,0,0,0,0,0,0,0,0,0,0,0,0,0,0,0,0,0,0,0,0,0,0,0,0,0,0,0,0,0,0,0,0,0,0,0,0,0,0,0,0,0,0,0,0,0,0,0,0,0,0,0,0,0,0,0,0,0,0,0,0,0,0,0,0,0,0,0,0,0,0,0,0,0,0,0,0,0,0,0,0,0,0,0,0,0,0,0,0,0,0],"sum_hessian":[1.6512E4,6.258E3,1.0254E4,5.337E3,9.21E2,1.059E3,9.195E3,1.34E2,5.203E3,6E0,9.15E2,5.6E1,1.003E3,8.613E3,5.82E2,4.7E1,8.7E1,2.06E3,3.143E3,4E0,2E0,1.34E2,7.81E2,2.5E1,3.1E1,2.77E2,7.26E2,3.875E3,4.738E3,3.47E2,2.35E2,3.2E1,1.5E1,1.2E1,7.5E1,6.7E1,1.993E3,3.7E1,3.106E3,2E0,2E0,9.1E1,4.3E1,5.92E2,1.89E2,5E0,2E1,6E0,2.5E1,1.77E2,1E2,5.45E2,1.81E2,1.657E3,2.218E3,3.778E3,9.6E2,8.2E1,2.65E2,1.81E2,5.4E1,1.3E1,1.9E1,2E0,1.3E1,9E0,3E0,4.7E1,2.8E1,1.5E1,5.2E1,6.58E2,1.335E3,2E0,3.5E1,2.847E3,2.59E2,1E0,1E0,4.5E1,4.6E1,2.6E1,1.7E1,2.85E2,3.07E2,1.06E2,8.3E1,3E0,2E0,1E0,1.9E1,2E0,4E0,1.7E1,8E0,1.27E2,5E1,8.9E1,1.1E1,7.9E1,4.66E2,1.5E2,3.1E1,1.14E3,5.17E2,1.376E3,8.42E2,2.9E2,3.488E3,6.98E2,2.62E2,7.7E1,5E0,2.51E2,1.4E1,1.57E2,2.4E1,1.9E1,3.5E1],"tree_param":{"num_deleted":"0","num_feature":"10","num_nodes":"119","size_leaf_vector":"1"}},{"base_weights":[2.7467098E-4,7.308437E-3,-4.002485E-2,2.8628288E-2,-8.575203E-3,-1.5932757E-2,-7.935128E-2,1.7054467E-1,6.047647E-3,2.1069016E-2,-3.9015032E-2,2.689379E-1,-2.340348E-2,-3.0008538E-2,-1.3590123E-1,2.305466E-1,7.6285295E-2,-1.0567384E-2,6.0511414E-2,3.5975885E-2,-7.849915E-2,-2.0452162E-2,-8.330184E-2,4.489915E-1,-1.7951138E-2,-2.9379008E-2,2.7762228E-1,-5.098102E-2,2.583204E-1,-1.02416255E-1,-2.1694057E-1,1.630626E-1,6.017819E-1,4.3539548E-1,5.732097E-2,2.4517462E-2,-8.355962E-2,1.7332664E-1,-8.62418E-2,7.983065E-2,1.2912678E-2,-5.6581225E-2,-1.6402341E-1,2.0259442E-2,-4.7196165E-2,-1.9056793E-2,-1.1462667E-1,-2.8279898E-1,5.283724E-1,1.8865447E-1,-1.2901318E-1,1.2373282E-1,-3.766101E-2,-8.052874E-2,4.703612E-1,1.00194186E-1,-7.529795E-2,2.6240742E-2,7.4119234E-1,-1.11275844E-1,3.635389E-1,-5.489531E-2,-2.5852337E-1,1.1350095E-1,3.636979E-2,3.836116E-1,1.6415213E-1,1.8905446E-1,1.7165423E-3,1.38692E-1,1.2638551E-2,1.083999E-1,2.9505882E-3,-6.5992246E-3,-7.915869E-2,4.3997698E-2,1.2763163E-1,-7.4535035E-2,-3.0915062E-3,1.7573713E-1,2.0118577E-2,2.5241626E-2,-9.191916E-3,1.0833249E-2,-2.2964096E-2,-4.1860558E-2,-1.4922594E-1,1.5455004E-2,-1.6976267E-2,-1.9354904E-2,9.4394665E-3,4.668075E-2,-2.066884E-2,-2.7351337E-2,-1.0859514E-1,-2.4254877E-2,-1.03004664E-1,4.319581E-1,1.09569184E-1,1.5963317E-3,8.369726E-2,-2.3956178E-2,-7.004597E-2,8.5577875E-2,-1.2315013E-2,-4.6574404E-3,-2.737936E-2,1.5912773E-2,-9.8261766E-2,2.0697287E-1,-8.470679E-2,1.1906358E-1,5.517245E-3,7.3164967E-3,-3.6747538E-2,2.280902E-1,-3.4448925E-2,2.9304244E-3,3.473261E-1,3.8046166E-2,-3.594172E-2,1.38120055E-2,1.532335E-1,-4.7617003E-2,1.3010782E-1,-1.963464E-1,-6.788593E-2],"categories":[],"categories_nodes":[],"categories_segments":[],"categories_sizes":[],"default_left":[0,0,0,0,0,0,0,0,0,0,0,0,0,0,0,0,0,0,0,0,0,0,0,0,0,0,0,0,0,0,0,0,0,0,0,0,0,0,0,0,0,0,0,0,0,0,0,0,0,0,0,0,0,0,0,0,0,0,0,0,0,0,0,0,0,0,0,0,0,0,0,0,0,0,0,0,0,0,0,0,0,0,0,0,0,0,0,0,0,0,0,0,0,0,0,0,0,0,0,0,0,0,0,0,0,0,0,0,0,0,0,0,0,0,0,0,0,0,0,0,0,0,0,0,0,0,0],"id":13,"left_children":[1,3,5,7,9,11,13,15,17,19,21,23,25,27,29,31,33,35,37,39,41,43,45,47,49,51,53,55,57,59,61,63,65,67,69,71,73,75,77,79,81,83,85,87,89,91,93,95,97,99,101,103,105,107,109,111,113,115,117,119,121,123,125,-1,-1,-1,-1,-1,-1,-1,-1,-1,-1,-1,-1,-1,-1,-1,-1,-1,-1,-1,-1,-1,-1,-1,-1,-1,-1,-1,-1,-1,-1,-1,-1,-1,-1,-1,-1,-1,-1,-1,-1,-1,-1,-1,-1,-1,-1,-1,-1,-1,-1,-1,-1,-1,-1,-1,-1,-1,-1,-1,-1,-1,-1,-1,-1],"loss_changes":[4.681025E0,4.7614794E0,2.3237927E0,1.9235958E1,7.272079E0,3.2475271E0,2.5965095E0,4.642746E0,4.6881104E0,6.0630155E0,3.2669277E0,2.022621E0,2.6793566E0,3.0306091E0,1.1554842E0,1.250325E1,2.1679535E0,1.0168906E1,2.0064259E1,3.5915742E0,9.8796105E-1,3.0528378E0,2.3604498E0,1.5435882E0,3.9147556E-1,1.8522414E0,2.0397375E0,1.7206151E0,3.790752E0,1.3160574E0,8.348336E-1,3.7992268E0,2.146677E0,1.3355055E0,1.8694129E0,1.3259425E1,1.4301877E1,4.543024E0,6.488803E0,7.8683186E0,7.2272906E0,7.8929794E-1,8.12335E-1,2.6739666E0,2.3072503E0,3.3708131E0,4.544696E0,8.92444E-3,2.7455583E0,9.7885504E-2,3.784935E-2,2.0079727E0,1.6396217E0,3.8030213E-1,3.3346972E0,1.5702369E0,1.8942277E0,2.5726058E0,3.3402042E0,6.325979E-1,2.5697392E-1,1.4385235E0,1.1283684E0,0E0,0E0,0E0,0E0,0E0,0E0,0E0,0E0,0E0,0E0,0E0,0E0,0E0,0E0,0E0,0E0,0E0,0E0,0E0,0E0,0E0,0E0,0E0,0E0,0E0,0E0,0E0,0E0,0E0,0E0,0E0,0E0,0E0,0E0,0E0,0E0,0E0,0E0,0E0,0E0,0E0,0E0,0E0,0E0,0E0,0E0,0E0,0E0,0E0,0E0,0E0,0E0,0E0,0E0,0E0,0E0,0E0,0E0,0E0,0E0,0E0,0E0,0E0,0E0],"parents":[2147483647,0,0,1,1,2,2,3,3,4,4,5,5,6,6,7,7,8,8,9,9,10,10,11,11,12,12,13,13,14,14,15,15,16,16,17,17,18,18,19,19,20,20,21,21,22,22,23,23,24,24,25,25,26,26,27,27,28,28,29,29,30,30,31,31,32,32,33,33,34,34,35,35,36,36,37,37,38,38,39,39,40,40,41,41,42,42,43,43,44,44,45,45,46,46,47,47,48,48,49,49,50,50,51,51,52,52,53,53,54,54,55,55,56,56,57,57,58,58,59,59,60,60,61,61,62,62],"right_children":[2,4,6,8,10,12,14,16,18,20,22,24,26,28,30,32,34,36,38,40,42,44,46,48,50,52,54,56,58,60,62,64,66,68,70,72,74,76,78,80,82,84,86,88,90,92,94,96,98,100,102,104,106,108,110,112,114,116,118,120,122,124,126,-1,-1,-1,-1,-1,-1,-1,-1,-1,-1,-1,-1,-1,-1,-1,-1,-1,-1,-1,-1,-1,-1,-1,-1,-1,-1,-1,-1,-1,-1,-1,-1,-1,-1,-1,-1,-1,-1,-1,-1,-1,-1,-1,-1,-1,-1,-1,-1,-1,-1,-1,-1,-1,-1,-1,-1,-1,-1,-1,-1,-1,-1,-1,-1],"split_conditions":[5.2336667E-2,-6.7974204E-1,-3.84767E-1,6.0879195E-1,-1.0433307E0,-1.3328265E0,-2.7196094E-1,8.055841E-1,-7.406063E-1,1.4645525E0,3.4647802E-1,1.0619121E0,3.2538134E-1,8.232265E-1,-6.6101456E-1,-3.0208664E-2,-1.1632254E0,-8.295617E-1,7.784964E-1,9.261379E-1,-3.4665725E-1,-4.2761418E-1,-4.4564873E-1,-3.7984538E-1,-1.3873687E-1,-8.6051476E-1,-6.929913E-2,-1.3221416E0,-8.9609355E-2,6.5046644E-1,-1.3677657E0,5.538876E-1,-3.5413182E-1,-6.9378763E-1,-1.2638885E-1,6.487224E-1,8.232265E-1,7.5353986E-1,-3.5688654E-2,-8.7940437E-1,-1.4076961E0,-1.6179627E-1,1.1410588E0,4.274103E-1,7.365234E-2,3.642179E-1,6.807593E-2,-1.5668013E0,-8.9671993E-1,-9.6383196E-1,1.1602312E0,5.848523E-1,-6.4696896E-1,-7.336268E-1,2.8209338E0,-1.0682873E0,1.3387316E-1,6.2490813E-2,-1.68268E-3,5.9880936E-1,-8.529711E-1,9.899705E-2,-9.797269E-1,1.1350095E-1,3.636979E-2,3.836116E-1,1.6415213E-1,1.8905446E-1,1.7165423E-3,1.38692E-1,1.2638551E-2,1.083999E-1,2.9505882E-3,-6.5992246E-3,-7.915869E-2,4.3997698E-2,1.2763163E-1,-7.4535035E-2,-3.0915062E-3,1.7573713E-1,2.0118577E-2,2.5241626E-2,-9.191916E-3,1.0833249E-2,-2.2964096E-2,-4.1860558E-2,-1.4922594E-1,1.5455004E-2,-1.6976267E-2,-1.9354904E-2,9.4394665E-3,4.668075E-2,-2.066884E-2,-2.7351337E-2,-1.0859514E-1,-2.4254877E-2,-1.03004664E-1,4.319581E-1,1.09569184E-1,1.5963317E-3,8.369726E-2,-2.3956178E-2,-7.004597E-2,8.5577875E-2,-1.2315013E-2,-4.6574404E-3,-2.737936E-2,1.5912773E-2,-9.8261766E-2,2.0697287E-1,-8.470679E-2,1.1906358E-1,5.517245E-3,7.3164967E-3,-3.6747538E-2,2.280902E-1,-3.4448925E-2,2.9304244E-3,3.473261E-1,3.8046166E-2,-3.594172E-2,1.38120055E-2,1.532335E-1,-4.7617003E-2,1.3010782E-1,-1.963464E-1,-6.788593E-2],"split_indices":[5,6,0,7,7,7,9,0,6,6,1,6,5,1,6,2,1,6,7,6,0,0,6,3,3,4,4,1,4,8,7,7,0,6,8,7,1,7,5,0,7,3,1,9,3,7,0,0,4,4,6,1,6,2,4,7,0,5,2,7,6,5,4,0,0,0,0,0,0,0,0,0,0,0,0,0,0,0,0,0,0,0,0,0,0,0,0,0,0,0,0,0,0,0,0,0,0,0,0,0,0,0,0,0,0,0,0,0,0,0,0,0,0,0,0,0,0,0,0,0,0,0,0,0,0,0,0],"split_type":[0,0,0,0,0,0,0,0,0,0,0,0,0,0,0,0,0,0,0,0,0,0,0,0,0,0,0,0,0,0,0,0,0,0,0,0,0,0,0,0,0,0,0,0,0,0,0,0,0,0,0,0,0,0,0,0,0,0,0,0,0,0,0,0,0,0,0,0,0,0,0,0,0,0,0,0,0,0,0,0,0,0,0,0,0,0,0,0,0,0,0,0,0,0,0,0,0,0,0,0,0,0,0,0,0,0,0,0,0,0,0,0,0,0,0,0,0,0,0,0,0,0,0,0,0,0,0],"sum_hessian":[1.6512E4,1.4059E4,2.453E3,6.002E3,8.057E3,1.522E3,9.31E2,8.23E2,5.179E3,4.082E3,3.975E3,3.8E1,1.484E3,4.98E2,4.33E2,5.02E2,3.21E2,3.969E3,1.21E3,3.551E3,5.31E2,2.802E3,1.173E3,2.3E1,1.5E1,1.456E3,2.8E1,4.65E2,3.3E1,3.08E2,1.25E2,4.26E2,7.6E1,1.5E1,3.06E2,2.681E3,1.288E3,6.84E2,5.26E2,1.223E3,2.328E3,4.24E2,1.07E2,1.111E3,1.691E3,3.85E2,7.88E2,2E0,2.1E1,5E0,1E1,7.4E1,1.382E3,1E1,1.8E1,6.4E1,4.01E2,2.3E1,1E1,3.03E2,5E0,2.6E1,9.9E1,6.8E1,3.58E2,4E0,7.2E1,1E1,5E0,1E1,2.96E2,1.11E2,2.57E3,9.61E2,3.27E2,6.2E2,6.4E1,1.67E2,3.59E2,2.9E1,1.194E3,8.83E2,1.445E3,7.5E1,3.49E2,1.01E2,6E0,7.9E2,3.21E2,1.386E3,3.05E2,8.5E1,3E2,7.21E2,6.7E1,1E0,1E0,2E0,1.9E1,2E0,3E0,8E0,2E0,3.7E1,3.7E1,9.79E2,4.03E2,7E0,3E0,1.4E1,4E0,1.3E1,5.1E1,1.29E2,2.72E2,3E0,2E1,4E0,6E0,1E1,2.93E2,2E0,3E0,2.2E1,4E0,6E0,9.3E1],"tree_param":{"num_deleted":"0","num_feature":"10","num_nodes":"127","size_leaf_vector":"1"}},{"base_weights":[3.2305467E-4,-1.2291659E-2,1.966892E-2,5.707219E-3,-3.3440407E-2,2.3780819E-2,-9.036871E-2,-5.146928E-3,5.359896E-2,-2.0825808E-1,-2.6019922E-2,4.6438307E-2,-6.6026516E-4,-2.1792626E-1,